digraph Tree {
node [shape=box, style="filled, rounded", color="black", fontname="helvetica"] ;
edge [fontname="helvetica"] ;
0 [label="T/L Aspect Ratio <= 0.097\ngini = 0.5\nsamples = 5359\nvalue = [4214, 4264]", fillcolor="#fdfeff"] ;
1 [label="Perimeter <= -0.206\ngini = 0.461\nsamples = 2789\nvalue = [2842, 1598]", fillcolor="#f4c8a8"] ;
0 -> 1 [labeldistance=2.5, labelangle=45, headlabel="True"] ;
2 [label="Compactness <= -0.408\ngini = 0.295\nsamples = 158\nvalue = [46, 210]", fillcolor="#64b2eb"] ;
1 -> 2 ;
3 [label="Fiber Width <= 4.991\ngini = 0.302\nsamples = 155\nvalue = [46, 202]", fillcolor="#66b3eb"] ;
2 -> 3 ;
4 [label="Fiber Width <= -0.082\ngini = 0.281\nsamples = 153\nvalue = [41, 202]", fillcolor="#61b1ea"] ;
3 -> 4 ;
5 [label="Fiber Length <= -0.091\ngini = 0.242\nsamples = 133\nvalue = [29, 177]", fillcolor="#59ade9"] ;
4 -> 5 ;
6 [label="Fiber Width <= -0.138\ngini = 0.26\nsamples = 121\nvalue = [29, 160]", fillcolor="#5dafea"] ;
5 -> 6 ;
7 [label="Fiber Length <= -0.15\ngini = 0.281\nsamples = 102\nvalue = [27, 133]", fillcolor="#61b1ea"] ;
6 -> 7 ;
8 [label="Fiber Length <= -0.194\ngini = 0.217\nsamples = 88\nvalue = [17, 120]", fillcolor="#55abe9"] ;
7 -> 8 ;
9 [label="gini = 0.245\nsamples = 74\nvalue = [17, 102]", fillcolor="#5aade9"] ;
8 -> 9 ;
10 [label="gini = 0.0\nsamples = 14\nvalue = [0, 18]", fillcolor="#399de5"] ;
8 -> 10 ;
11 [label="Fiber Width <= -0.14\ngini = 0.491\nsamples = 14\nvalue = [10, 13]", fillcolor="#d1e8f9"] ;
7 -> 11 ;
12 [label="Fiber Width <= -0.18\ngini = 0.455\nsamples = 13\nvalue = [7, 13]", fillcolor="#a4d2f3"] ;
11 -> 12 ;
13 [label="Fiber Width <= -0.193\ngini = 0.5\nsamples = 7\nvalue = [6, 6]", fillcolor="#ffffff"] ;
12 -> 13 ;
14 [label="gini = 0.0\nsamples = 2\nvalue = [0, 2]", fillcolor="#399de5"] ;
13 -> 14 ;
15 [label="Fiber Width <= -0.189\ngini = 0.48\nsamples = 5\nvalue = [6, 4]", fillcolor="#f6d5bd"] ;
13 -> 15 ;
16 [label="gini = 0.0\nsamples = 1\nvalue = [1, 0]", fillcolor="#e58139"] ;
15 -> 16 ;
17 [label="Fiber Length <= -0.121\ngini = 0.494\nsamples = 4\nvalue = [5, 4]", fillcolor="#fae6d7"] ;
15 -> 17 ;
18 [label="gini = 0.444\nsamples = 2\nvalue = [1, 2]", fillcolor="#9ccef2"] ;
17 -> 18 ;
19 [label="gini = 0.444\nsamples = 2\nvalue = [4, 2]", fillcolor="#f2c09c"] ;
17 -> 19 ;
20 [label="Fiber Length <= -0.147\ngini = 0.219\nsamples = 6\nvalue = [1, 7]", fillcolor="#55abe9"] ;
12 -> 20 ;
21 [label="gini = 0.0\nsamples = 1\nvalue = [1, 0]", fillcolor="#e58139"] ;
20 -> 21 ;
22 [label="gini = 0.0\nsamples = 5\nvalue = [0, 7]", fillcolor="#399de5"] ;
20 -> 22 ;
23 [label="gini = 0.0\nsamples = 1\nvalue = [3, 0]", fillcolor="#e58139"] ;
11 -> 23 ;
24 [label="Fiber Width <= -0.1\ngini = 0.128\nsamples = 19\nvalue = [2, 27]", fillcolor="#48a4e7"] ;
6 -> 24 ;
25 [label="gini = 0.0\nsamples = 14\nvalue = [0, 22]", fillcolor="#399de5"] ;
24 -> 25 ;
26 [label="Fiber Width <= -0.095\ngini = 0.408\nsamples = 5\nvalue = [2, 5]", fillcolor="#88c4ef"] ;
24 -> 26 ;
27 [label="gini = 0.0\nsamples = 1\nvalue = [2, 0]", fillcolor="#e58139"] ;
26 -> 27 ;
28 [label="gini = 0.0\nsamples = 4\nvalue = [0, 5]", fillcolor="#399de5"] ;
26 -> 28 ;
29 [label="gini = 0.0\nsamples = 12\nvalue = [0, 17]", fillcolor="#399de5"] ;
5 -> 29 ;
30 [label="Fiber Width <= -0.076\ngini = 0.438\nsamples = 20\nvalue = [12, 25]", fillcolor="#98ccf1"] ;
4 -> 30 ;
31 [label="gini = 0.0\nsamples = 1\nvalue = [5, 0]", fillcolor="#e58139"] ;
30 -> 31 ;
32 [label="Fiber Width <= 0.19\ngini = 0.342\nsamples = 19\nvalue = [7, 25]", fillcolor="#70b8ec"] ;
30 -> 32 ;
33 [label="Fiber Length <= -0.076\ngini = 0.227\nsamples = 13\nvalue = [3, 20]", fillcolor="#57ace9"] ;
32 -> 33 ;
34 [label="Fiber Width <= -0.063\ngini = 0.111\nsamples = 9\nvalue = [1, 16]", fillcolor="#45a3e7"] ;
33 -> 34 ;
35 [label="gini = 0.0\nsamples = 3\nvalue = [0, 8]", fillcolor="#399de5"] ;
34 -> 35 ;
36 [label="Fiber Length <= -0.124\ngini = 0.198\nsamples = 6\nvalue = [1, 8]", fillcolor="#52a9e8"] ;
34 -> 36 ;
37 [label="Fiber Length <= -0.135\ngini = 0.5\nsamples = 2\nvalue = [1, 1]", fillcolor="#ffffff"] ;
36 -> 37 ;
38 [label="gini = 0.0\nsamples = 1\nvalue = [0, 1]", fillcolor="#399de5"] ;
37 -> 38 ;
39 [label="gini = 0.0\nsamples = 1\nvalue = [1, 0]", fillcolor="#e58139"] ;
37 -> 39 ;
40 [label="gini = 0.0\nsamples = 4\nvalue = [0, 7]", fillcolor="#399de5"] ;
36 -> 40 ;
41 [label="Fiber Width <= -0.02\ngini = 0.444\nsamples = 4\nvalue = [2, 4]", fillcolor="#9ccef2"] ;
33 -> 41 ;
42 [label="gini = 0.0\nsamples = 1\nvalue = [1, 0]", fillcolor="#e58139"] ;
41 -> 42 ;
43 [label="Fiber Length <= -0.061\ngini = 0.32\nsamples = 3\nvalue = [1, 4]", fillcolor="#6ab6ec"] ;
41 -> 43 ;
44 [label="gini = 0.0\nsamples = 1\nvalue = [1, 0]", fillcolor="#e58139"] ;
43 -> 44 ;
45 [label="gini = 0.0\nsamples = 2\nvalue = [0, 4]", fillcolor="#399de5"] ;
43 -> 45 ;
46 [label="Fiber Width <= 1.531\ngini = 0.494\nsamples = 6\nvalue = [4, 5]", fillcolor="#d7ebfa"] ;
32 -> 46 ;
47 [label="gini = 0.0\nsamples = 2\nvalue = [4, 0]", fillcolor="#e58139"] ;
46 -> 47 ;
48 [label="gini = 0.0\nsamples = 4\nvalue = [0, 5]", fillcolor="#399de5"] ;
46 -> 48 ;
49 [label="gini = 0.0\nsamples = 2\nvalue = [5, 0]", fillcolor="#e58139"] ;
3 -> 49 ;
50 [label="gini = 0.0\nsamples = 3\nvalue = [0, 8]", fillcolor="#399de5"] ;
2 -> 50 ;
51 [label="W/T Ratio <= 1.739\ngini = 0.443\nsamples = 2631\nvalue = [2796, 1388]", fillcolor="#f2c09b"] ;
1 -> 51 ;
52 [label="CHull  Area <= -0.067\ngini = 0.462\nsamples = 2388\nvalue = [2417, 1376]", fillcolor="#f4c9aa"] ;
51 -> 52 ;
53 [label="Fiber Length <= -0.175\ngini = 0.409\nsamples = 1655\nvalue = [1884, 756]", fillcolor="#efb488"] ;
52 -> 53 ;
54 [label="Compactness <= 0.306\ngini = 0.499\nsamples = 196\nvalue = [162, 148]", fillcolor="#fdf4ee"] ;
53 -> 54 ;
55 [label="Ellipticity <= -0.253\ngini = 0.496\nsamples = 184\nvalue = [160, 134]", fillcolor="#fbebdf"] ;
54 -> 55 ;
56 [label="Perimeter <= -0.145\ngini = 0.458\nsamples = 72\nvalue = [78, 43]", fillcolor="#f3c6a6"] ;
55 -> 56 ;
57 [label="Transparency <= 0.917\ngini = 0.431\nsamples = 22\nvalue = [11, 24]", fillcolor="#94caf1"] ;
56 -> 57 ;
58 [label="Da <= -0.143\ngini = 0.198\nsamples = 16\nvalue = [3, 24]", fillcolor="#52a9e8"] ;
57 -> 58 ;
59 [label="FThickness <= -0.18\ngini = 0.32\nsamples = 12\nvalue = [3, 12]", fillcolor="#6ab6ec"] ;
58 -> 59 ;
60 [label="gini = 0.0\nsamples = 7\nvalue = [0, 10]", fillcolor="#399de5"] ;
59 -> 60 ;
61 [label="Concavity <= -0.524\ngini = 0.48\nsamples = 5\nvalue = [3, 2]", fillcolor="#f6d5bd"] ;
59 -> 61 ;
62 [label="gini = 0.0\nsamples = 2\nvalue = [2, 0]", fillcolor="#e58139"] ;
61 -> 62 ;
63 [label="Roundness <= -0.095\ngini = 0.444\nsamples = 3\nvalue = [1, 2]", fillcolor="#9ccef2"] ;
61 -> 63 ;
64 [label="gini = 0.0\nsamples = 1\nvalue = [1, 0]", fillcolor="#e58139"] ;
63 -> 64 ;
65 [label="gini = 0.0\nsamples = 2\nvalue = [0, 2]", fillcolor="#399de5"] ;
63 -> 65 ;
66 [label="gini = 0.0\nsamples = 4\nvalue = [0, 12]", fillcolor="#399de5"] ;
58 -> 66 ;
67 [label="gini = 0.0\nsamples = 6\nvalue = [8, 0]", fillcolor="#e58139"] ;
57 -> 67 ;
68 [label="Transparency <= 0.025\ngini = 0.344\nsamples = 50\nvalue = [67, 19]", fillcolor="#eca571"] ;
56 -> 68 ;
69 [label="gini = 0.0\nsamples = 9\nvalue = [0, 16]", fillcolor="#399de5"] ;
68 -> 69 ;
70 [label="Sieve <= -0.129\ngini = 0.082\nsamples = 41\nvalue = [67, 3]", fillcolor="#e68742"] ;
68 -> 70 ;
71 [label="EWidth <= -0.12\ngini = 0.204\nsamples = 15\nvalue = [23, 3]", fillcolor="#e89153"] ;
70 -> 71 ;
72 [label="gini = 0.0\nsamples = 11\nvalue = [20, 0]", fillcolor="#e58139"] ;
71 -> 72 ;
73 [label="Solidity <= 0.44\ngini = 0.5\nsamples = 4\nvalue = [3, 3]", fillcolor="#ffffff"] ;
71 -> 73 ;
74 [label="gini = 0.0\nsamples = 2\nvalue = [3, 0]", fillcolor="#e58139"] ;
73 -> 74 ;
75 [label="gini = 0.0\nsamples = 2\nvalue = [0, 3]", fillcolor="#399de5"] ;
73 -> 75 ;
76 [label="gini = 0.0\nsamples = 26\nvalue = [44, 0]", fillcolor="#e58139"] ;
70 -> 76 ;
77 [label="Transparency <= 0.663\ngini = 0.499\nsamples = 112\nvalue = [82, 91]", fillcolor="#ebf5fc"] ;
55 -> 77 ;
78 [label="Surface Area <= -0.07\ngini = 0.439\nsamples = 81\nvalue = [44, 91]", fillcolor="#99ccf2"] ;
77 -> 78 ;
79 [label="T/L Aspect Ratio <= -0.642\ngini = 0.483\nsamples = 26\nvalue = [26, 18]", fillcolor="#f7d8c2"] ;
78 -> 79 ;
80 [label="L/T Ratio <= 3.99\ngini = 0.469\nsamples = 10\nvalue = [6, 10]", fillcolor="#b0d8f5"] ;
79 -> 80 ;
81 [label="Sieve <= -0.229\ngini = 0.444\nsamples = 9\nvalue = [5, 10]", fillcolor="#9ccef2"] ;
80 -> 81 ;
82 [label="gini = 0.473\nsamples = 7\nvalue = [5, 8]", fillcolor="#b5daf5"] ;
81 -> 82 ;
83 [label="gini = 0.0\nsamples = 2\nvalue = [0, 2]", fillcolor="#399de5"] ;
81 -> 83 ;
84 [label="gini = 0.0\nsamples = 1\nvalue = [1, 0]", fillcolor="#e58139"] ;
80 -> 84 ;
85 [label="L/T Ratio <= 0.068\ngini = 0.408\nsamples = 16\nvalue = [20, 8]", fillcolor="#efb388"] ;
79 -> 85 ;
86 [label="Fiber Length <= -0.196\ngini = 0.463\nsamples = 13\nvalue = [14, 8]", fillcolor="#f4c9aa"] ;
85 -> 86 ;
87 [label="FLength <= -0.185\ngini = 0.42\nsamples = 12\nvalue = [14, 6]", fillcolor="#f0b78e"] ;
86 -> 87 ;
88 [label="Compactness <= -0.777\ngini = 0.36\nsamples = 9\nvalue = [13, 4]", fillcolor="#eda876"] ;
87 -> 88 ;
89 [label="gini = 0.444\nsamples = 3\nvalue = [2, 1]", fillcolor="#f2c09c"] ;
88 -> 89 ;
90 [label="gini = 0.337\nsamples = 6\nvalue = [11, 3]", fillcolor="#eca36f"] ;
88 -> 90 ;
91 [label="gini = 0.444\nsamples = 3\nvalue = [1, 2]", fillcolor="#9ccef2"] ;
87 -> 91 ;
92 [label="gini = 0.0\nsamples = 1\nvalue = [0, 2]", fillcolor="#399de5"] ;
86 -> 92 ;
93 [label="gini = 0.0\nsamples = 3\nvalue = [6, 0]", fillcolor="#e58139"] ;
85 -> 93 ;
94 [label="CHull Surface Area <= -0.069\ngini = 0.317\nsamples = 55\nvalue = [18, 73]", fillcolor="#6ab5eb"] ;
78 -> 94 ;
95 [label="Roundness <= -0.816\ngini = 0.211\nsamples = 30\nvalue = [6, 44]", fillcolor="#54aae9"] ;
94 -> 95 ;
96 [label="gini = 0.375\nsamples = 2\nvalue = [3, 1]", fillcolor="#eeab7b"] ;
95 -> 96 ;
97 [label="CHull Surface Area <= -0.07\ngini = 0.122\nsamples = 28\nvalue = [3, 43]", fillcolor="#47a4e7"] ;
95 -> 97 ;
98 [label="T/L Aspect Ratio <= -0.537\ngini = 0.444\nsamples = 2\nvalue = [1, 2]", fillcolor="#9ccef2"] ;
97 -> 98 ;
99 [label="gini = 0.0\nsamples = 1\nvalue = [0, 2]", fillcolor="#399de5"] ;
98 -> 99 ;
100 [label="gini = 0.0\nsamples = 1\nvalue = [1, 0]", fillcolor="#e58139"] ;
98 -> 100 ;
101 [label="Compactness <= 0.015\ngini = 0.089\nsamples = 26\nvalue = [2, 41]", fillcolor="#43a2e6"] ;
97 -> 101 ;
102 [label="Dp <= -0.172\ngini = 0.05\nsamples = 23\nvalue = [1, 38]", fillcolor="#3ea0e6"] ;
101 -> 102 ;
103 [label="gini = 0.165\nsamples = 7\nvalue = [1, 10]", fillcolor="#4da7e8"] ;
102 -> 103 ;
104 [label="gini = 0.0\nsamples = 16\nvalue = [0, 28]", fillcolor="#399de5"] ;
102 -> 104 ;
105 [label="Da <= -0.134\ngini = 0.375\nsamples = 3\nvalue = [1, 3]", fillcolor="#7bbeee"] ;
101 -> 105 ;
106 [label="gini = 0.0\nsamples = 1\nvalue = [1, 0]", fillcolor="#e58139"] ;
105 -> 106 ;
107 [label="gini = 0.0\nsamples = 2\nvalue = [0, 3]", fillcolor="#399de5"] ;
105 -> 107 ;
108 [label="EThickness <= -0.153\ngini = 0.414\nsamples = 25\nvalue = [12, 29]", fillcolor="#8bc6f0"] ;
94 -> 108 ;
109 [label="gini = 0.0\nsamples = 2\nvalue = [4, 0]", fillcolor="#e58139"] ;
108 -> 109 ;
110 [label="Transparency <= 0.464\ngini = 0.339\nsamples = 23\nvalue = [8, 29]", fillcolor="#70b8ec"] ;
108 -> 110 ;
111 [label="EThickness <= -0.138\ngini = 0.213\nsamples = 21\nvalue = [4, 29]", fillcolor="#54abe9"] ;
110 -> 111 ;
112 [label="Surface Area <= -0.068\ngini = 0.49\nsamples = 5\nvalue = [3, 4]", fillcolor="#cee6f8"] ;
111 -> 112 ;
113 [label="CHull Perimeter <= -0.13\ngini = 0.32\nsamples = 4\nvalue = [1, 4]", fillcolor="#6ab6ec"] ;
112 -> 113 ;
114 [label="gini = 0.0\nsamples = 1\nvalue = [1, 0]", fillcolor="#e58139"] ;
113 -> 114 ;
115 [label="gini = 0.0\nsamples = 3\nvalue = [0, 4]", fillcolor="#399de5"] ;
113 -> 115 ;
116 [label="gini = 0.0\nsamples = 1\nvalue = [2, 0]", fillcolor="#e58139"] ;
112 -> 116 ;
117 [label="Perimeter <= -0.093\ngini = 0.074\nsamples = 16\nvalue = [1, 25]", fillcolor="#41a1e6"] ;
111 -> 117 ;
118 [label="gini = 0.0\nsamples = 13\nvalue = [0, 22]", fillcolor="#399de5"] ;
117 -> 118 ;
119 [label="ELength <= -0.083\ngini = 0.375\nsamples = 3\nvalue = [1, 3]", fillcolor="#7bbeee"] ;
117 -> 119 ;
120 [label="gini = 0.0\nsamples = 1\nvalue = [1, 0]", fillcolor="#e58139"] ;
119 -> 120 ;
121 [label="gini = 0.0\nsamples = 2\nvalue = [0, 3]", fillcolor="#399de5"] ;
119 -> 121 ;
122 [label="gini = 0.0\nsamples = 2\nvalue = [4, 0]", fillcolor="#e58139"] ;
110 -> 122 ;
123 [label="gini = 0.0\nsamples = 31\nvalue = [38, 0]", fillcolor="#e58139"] ;
77 -> 123 ;
124 [label="Extent <= 1.447\ngini = 0.219\nsamples = 12\nvalue = [2, 14]", fillcolor="#55abe9"] ;
54 -> 124 ;
125 [label="Angularity <= -0.022\ngini = 0.124\nsamples = 11\nvalue = [1, 14]", fillcolor="#47a4e7"] ;
124 -> 125 ;
126 [label="gini = 0.0\nsamples = 1\nvalue = [1, 0]", fillcolor="#e58139"] ;
125 -> 126 ;
127 [label="gini = 0.0\nsamples = 10\nvalue = [0, 14]", fillcolor="#399de5"] ;
125 -> 127 ;
128 [label="gini = 0.0\nsamples = 1\nvalue = [1, 0]", fillcolor="#e58139"] ;
124 -> 128 ;
129 [label="Roundness <= -0.758\ngini = 0.386\nsamples = 1459\nvalue = [1722, 608]", fillcolor="#eead7f"] ;
53 -> 129 ;
130 [label="L/W Ratio <= -0.251\ngini = 0.253\nsamples = 772\nvalue = [1044, 182]", fillcolor="#ea975c"] ;
129 -> 130 ;
131 [label="gini = 0.0\nsamples = 3\nvalue = [0, 7]", fillcolor="#399de5"] ;
130 -> 131 ;
132 [label="Transparency <= 0.575\ngini = 0.246\nsamples = 769\nvalue = [1044, 175]", fillcolor="#e9965a"] ;
130 -> 132 ;
133 [label="ELength <= -0.142\ngini = 0.497\nsamples = 170\nvalue = [119, 138]", fillcolor="#e4f2fb"] ;
132 -> 133 ;
134 [label="Fiber Length <= -0.125\ngini = 0.051\nsamples = 26\nvalue = [37, 1]", fillcolor="#e6843e"] ;
133 -> 134 ;
135 [label="Perimeter <= -0.199\ngini = 0.245\nsamples = 6\nvalue = [6, 1]", fillcolor="#e9965a"] ;
134 -> 135 ;
136 [label="Fiber Length <= -0.135\ngini = 0.375\nsamples = 3\nvalue = [3, 1]", fillcolor="#eeab7b"] ;
135 -> 136 ;
137 [label="gini = 0.0\nsamples = 2\nvalue = [3, 0]", fillcolor="#e58139"] ;
136 -> 137 ;
138 [label="gini = 0.0\nsamples = 1\nvalue = [0, 1]", fillcolor="#399de5"] ;
136 -> 138 ;
139 [label="gini = 0.0\nsamples = 3\nvalue = [3, 0]", fillcolor="#e58139"] ;
135 -> 139 ;
140 [label="gini = 0.0\nsamples = 20\nvalue = [31, 0]", fillcolor="#e58139"] ;
134 -> 140 ;
141 [label="Concavity <= 0.091\ngini = 0.468\nsamples = 144\nvalue = [82, 137]", fillcolor="#b0d8f5"] ;
133 -> 141 ;
142 [label="Sphericity <= -1.202\ngini = 0.496\nsamples = 72\nvalue = [58, 49]", fillcolor="#fbebe0"] ;
141 -> 142 ;
143 [label="Solidity <= 0.142\ngini = 0.18\nsamples = 13\nvalue = [18, 2]", fillcolor="#e88f4f"] ;
142 -> 143 ;
144 [label="gini = 0.0\nsamples = 6\nvalue = [11, 0]", fillcolor="#e58139"] ;
143 -> 144 ;
145 [label="Ellipse Ratio <= -1.34\ngini = 0.346\nsamples = 7\nvalue = [7, 2]", fillcolor="#eca572"] ;
143 -> 145 ;
146 [label="Fiber Length <= -0.111\ngini = 0.444\nsamples = 3\nvalue = [1, 2]", fillcolor="#9ccef2"] ;
145 -> 146 ;
147 [label="gini = 0.0\nsamples = 1\nvalue = [1, 0]", fillcolor="#e58139"] ;
146 -> 147 ;
148 [label="gini = 0.0\nsamples = 2\nvalue = [0, 2]", fillcolor="#399de5"] ;
146 -> 148 ;
149 [label="gini = 0.0\nsamples = 4\nvalue = [6, 0]", fillcolor="#e58139"] ;
145 -> 149 ;
150 [label="Extent <= 0.066\ngini = 0.497\nsamples = 59\nvalue = [40, 47]", fillcolor="#e2f0fb"] ;
142 -> 150 ;
151 [label="FThickness <= -0.212\ngini = 0.449\nsamples = 33\nvalue = [31, 16]", fillcolor="#f2c29f"] ;
150 -> 151 ;
152 [label="gini = 0.0\nsamples = 4\nvalue = [0, 5]", fillcolor="#399de5"] ;
151 -> 152 ;
153 [label="FWidth <= -0.134\ngini = 0.387\nsamples = 29\nvalue = [31, 11]", fillcolor="#eeae7f"] ;
151 -> 153 ;
154 [label="Da <= -0.111\ngini = 0.484\nsamples = 11\nvalue = [10, 7]", fillcolor="#f7d9c4"] ;
153 -> 154 ;
155 [label="Ellipse Ratio <= -0.721\ngini = 0.408\nsamples = 9\nvalue = [10, 4]", fillcolor="#efb388"] ;
154 -> 155 ;
156 [label="W/L Ratio <= -1.032\ngini = 0.278\nsamples = 8\nvalue = [10, 2]", fillcolor="#ea9a61"] ;
155 -> 156 ;
157 [label="Angularity <= 1.634\ngini = 0.165\nsamples = 7\nvalue = [10, 1]", fillcolor="#e88e4d"] ;
156 -> 157 ;
158 [label="gini = 0.0\nsamples = 6\nvalue = [10, 0]", fillcolor="#e58139"] ;
157 -> 158 ;
159 [label="gini = 0.0\nsamples = 1\nvalue = [0, 1]", fillcolor="#399de5"] ;
157 -> 159 ;
160 [label="gini = 0.0\nsamples = 1\nvalue = [0, 1]", fillcolor="#399de5"] ;
156 -> 160 ;
161 [label="gini = 0.0\nsamples = 1\nvalue = [0, 2]", fillcolor="#399de5"] ;
155 -> 161 ;
162 [label="gini = 0.0\nsamples = 2\nvalue = [0, 3]", fillcolor="#399de5"] ;
154 -> 162 ;
163 [label="Perimeter <= -0.064\ngini = 0.269\nsamples = 18\nvalue = [21, 4]", fillcolor="#ea995f"] ;
153 -> 163 ;
164 [label="ELength <= -0.051\ngini = 0.159\nsamples = 17\nvalue = [21, 2]", fillcolor="#e78d4c"] ;
163 -> 164 ;
165 [label="W/L Ratio <= -0.697\ngini = 0.087\nsamples = 16\nvalue = [21, 1]", fillcolor="#e68742"] ;
164 -> 165 ;
166 [label="gini = 0.0\nsamples = 15\nvalue = [21, 0]", fillcolor="#e58139"] ;
165 -> 166 ;
167 [label="gini = 0.0\nsamples = 1\nvalue = [0, 1]", fillcolor="#399de5"] ;
165 -> 167 ;
168 [label="gini = 0.0\nsamples = 1\nvalue = [0, 1]", fillcolor="#399de5"] ;
164 -> 168 ;
169 [label="gini = 0.0\nsamples = 1\nvalue = [0, 2]", fillcolor="#399de5"] ;
163 -> 169 ;
170 [label="Transparency <= 0.266\ngini = 0.349\nsamples = 26\nvalue = [9, 31]", fillcolor="#72b9ed"] ;
150 -> 170 ;
171 [label="Concavity <= -0.524\ngini = 0.083\nsamples = 15\nvalue = [1, 22]", fillcolor="#42a1e6"] ;
170 -> 171 ;
172 [label="L/T Ratio <= 0.682\ngini = 0.5\nsamples = 2\nvalue = [1, 1]", fillcolor="#ffffff"] ;
171 -> 172 ;
173 [label="gini = 0.0\nsamples = 1\nvalue = [1, 0]", fillcolor="#e58139"] ;
172 -> 173 ;
174 [label="gini = 0.0\nsamples = 1\nvalue = [0, 1]", fillcolor="#399de5"] ;
172 -> 174 ;
175 [label="gini = 0.0\nsamples = 13\nvalue = [0, 21]", fillcolor="#399de5"] ;
171 -> 175 ;
176 [label="FWidth <= -0.144\ngini = 0.498\nsamples = 11\nvalue = [8, 9]", fillcolor="#e9f4fc"] ;
170 -> 176 ;
177 [label="Sphericity <= -0.857\ngini = 0.18\nsamples = 6\nvalue = [1, 9]", fillcolor="#4fa8e8"] ;
176 -> 177 ;
178 [label="gini = 0.0\nsamples = 4\nvalue = [0, 8]", fillcolor="#399de5"] ;
177 -> 178 ;
179 [label="EWidth <= -0.15\ngini = 0.5\nsamples = 2\nvalue = [1, 1]", fillcolor="#ffffff"] ;
177 -> 179 ;
180 [label="gini = 0.0\nsamples = 1\nvalue = [1, 0]", fillcolor="#e58139"] ;
179 -> 180 ;
181 [label="gini = 0.0\nsamples = 1\nvalue = [0, 1]", fillcolor="#399de5"] ;
179 -> 181 ;
182 [label="gini = 0.0\nsamples = 5\nvalue = [7, 0]", fillcolor="#e58139"] ;
176 -> 182 ;
183 [label="Convexity <= -1.191\ngini = 0.337\nsamples = 72\nvalue = [24, 88]", fillcolor="#6fb8ec"] ;
141 -> 183 ;
184 [label="Sphericity <= -0.975\ngini = 0.48\nsamples = 14\nvalue = [12, 8]", fillcolor="#f6d5bd"] ;
183 -> 184 ;
185 [label="CHull  Area <= -0.067\ngini = 0.375\nsamples = 12\nvalue = [12, 4]", fillcolor="#eeab7b"] ;
184 -> 185 ;
186 [label="Ellipticity <= 0.165\ngini = 0.245\nsamples = 10\nvalue = [12, 2]", fillcolor="#e9965a"] ;
185 -> 186 ;
187 [label="Ellipticity <= -0.071\ngini = 0.408\nsamples = 4\nvalue = [5, 2]", fillcolor="#efb388"] ;
186 -> 187 ;
188 [label="gini = 0.0\nsamples = 3\nvalue = [5, 0]", fillcolor="#e58139"] ;
187 -> 188 ;
189 [label="gini = 0.0\nsamples = 1\nvalue = [0, 2]", fillcolor="#399de5"] ;
187 -> 189 ;
190 [label="gini = 0.0\nsamples = 6\nvalue = [7, 0]", fillcolor="#e58139"] ;
186 -> 190 ;
191 [label="gini = 0.0\nsamples = 2\nvalue = [0, 2]", fillcolor="#399de5"] ;
185 -> 191 ;
192 [label="gini = 0.0\nsamples = 2\nvalue = [0, 4]", fillcolor="#399de5"] ;
184 -> 192 ;
193 [label="Ellipticity <= 1.335\ngini = 0.227\nsamples = 58\nvalue = [12, 80]", fillcolor="#57ace9"] ;
183 -> 193 ;
194 [label="Compactness <= -1.458\ngini = 0.328\nsamples = 36\nvalue = [12, 46]", fillcolor="#6db7ec"] ;
193 -> 194 ;
195 [label="gini = 0.0\nsamples = 4\nvalue = [6, 0]", fillcolor="#e58139"] ;
194 -> 195 ;
196 [label="EThickness <= -0.258\ngini = 0.204\nsamples = 32\nvalue = [6, 46]", fillcolor="#53aae8"] ;
194 -> 196 ;
197 [label="gini = 0.0\nsamples = 1\nvalue = [1, 0]", fillcolor="#e58139"] ;
196 -> 197 ;
198 [label="Solidity <= -0.292\ngini = 0.177\nsamples = 31\nvalue = [5, 46]", fillcolor="#4fa8e8"] ;
196 -> 198 ;
199 [label="Sieve <= -0.116\ngini = 0.053\nsamples = 22\nvalue = [1, 36]", fillcolor="#3ea0e6"] ;
198 -> 199 ;
200 [label="gini = 0.0\nsamples = 20\nvalue = [0, 34]", fillcolor="#399de5"] ;
199 -> 200 ;
201 [label="EWidth <= -0.111\ngini = 0.444\nsamples = 2\nvalue = [1, 2]", fillcolor="#9ccef2"] ;
199 -> 201 ;
202 [label="gini = 0.0\nsamples = 1\nvalue = [1, 0]", fillcolor="#e58139"] ;
201 -> 202 ;
203 [label="gini = 0.0\nsamples = 1\nvalue = [0, 2]", fillcolor="#399de5"] ;
201 -> 203 ;
204 [label="FThickness <= -0.2\ngini = 0.408\nsamples = 9\nvalue = [4, 10]", fillcolor="#88c4ef"] ;
198 -> 204 ;
205 [label="gini = 0.0\nsamples = 5\nvalue = [0, 9]", fillcolor="#399de5"] ;
204 -> 205 ;
206 [label="EThickness <= -0.141\ngini = 0.32\nsamples = 4\nvalue = [4, 1]", fillcolor="#eca06a"] ;
204 -> 206 ;
207 [label="gini = 0.0\nsamples = 3\nvalue = [4, 0]", fillcolor="#e58139"] ;
206 -> 207 ;
208 [label="gini = 0.0\nsamples = 1\nvalue = [0, 1]", fillcolor="#399de5"] ;
206 -> 208 ;
209 [label="gini = 0.0\nsamples = 22\nvalue = [0, 34]", fillcolor="#399de5"] ;
193 -> 209 ;
210 [label="Solidity <= -2.214\ngini = 0.074\nsamples = 599\nvalue = [925, 37]", fillcolor="#e68641"] ;
132 -> 210 ;
211 [label="Curvature <= 5.127\ngini = 0.204\nsamples = 106\nvalue = [146, 19]", fillcolor="#e89153"] ;
210 -> 211 ;
212 [label="Perimeter <= -0.202\ngini = 0.11\nsamples = 98\nvalue = [145, 9]", fillcolor="#e78945"] ;
211 -> 212 ;
213 [label="Transparency <= 1.122\ngini = 0.5\nsamples = 2\nvalue = [2, 2]", fillcolor="#ffffff"] ;
212 -> 213 ;
214 [label="gini = 0.0\nsamples = 1\nvalue = [0, 2]", fillcolor="#399de5"] ;
213 -> 214 ;
215 [label="gini = 0.0\nsamples = 1\nvalue = [2, 0]", fillcolor="#e58139"] ;
213 -> 215 ;
216 [label="FWidth <= -0.141\ngini = 0.089\nsamples = 96\nvalue = [143, 7]", fillcolor="#e68743"] ;
212 -> 216 ;
217 [label="EThickness <= -0.253\ngini = 0.185\nsamples = 40\nvalue = [61, 7]", fillcolor="#e88f50"] ;
216 -> 217 ;
218 [label="CHull Perimeter <= -0.193\ngini = 0.041\nsamples = 24\nvalue = [47, 1]", fillcolor="#e6843d"] ;
217 -> 218 ;
219 [label="Compactness <= -2.037\ngini = 0.278\nsamples = 3\nvalue = [5, 1]", fillcolor="#ea9a61"] ;
218 -> 219 ;
220 [label="gini = 0.0\nsamples = 2\nvalue = [5, 0]", fillcolor="#e58139"] ;
219 -> 220 ;
221 [label="gini = 0.0\nsamples = 1\nvalue = [0, 1]", fillcolor="#399de5"] ;
219 -> 221 ;
222 [label="gini = 0.0\nsamples = 21\nvalue = [42, 0]", fillcolor="#e58139"] ;
218 -> 222 ;
223 [label="Extent <= -1.392\ngini = 0.42\nsamples = 16\nvalue = [14, 6]", fillcolor="#f0b78e"] ;
217 -> 223 ;
224 [label="Fiber Width <= -0.168\ngini = 0.291\nsamples = 13\nvalue = [14, 3]", fillcolor="#eb9c63"] ;
223 -> 224 ;
225 [label="EWidth <= -0.159\ngini = 0.375\nsamples = 4\nvalue = [1, 3]", fillcolor="#7bbeee"] ;
224 -> 225 ;
226 [label="gini = 0.0\nsamples = 3\nvalue = [0, 3]", fillcolor="#399de5"] ;
225 -> 226 ;
227 [label="gini = 0.0\nsamples = 1\nvalue = [1, 0]", fillcolor="#e58139"] ;
225 -> 227 ;
228 [label="gini = 0.0\nsamples = 9\nvalue = [13, 0]", fillcolor="#e58139"] ;
224 -> 228 ;
229 [label="gini = 0.0\nsamples = 3\nvalue = [0, 3]", fillcolor="#399de5"] ;
223 -> 229 ;
230 [label="gini = 0.0\nsamples = 56\nvalue = [82, 0]", fillcolor="#e58139"] ;
216 -> 230 ;
231 [label="L/T Ratio <= -0.143\ngini = 0.165\nsamples = 8\nvalue = [1, 10]", fillcolor="#4da7e8"] ;
211 -> 231 ;
232 [label="gini = 0.0\nsamples = 1\nvalue = [1, 0]", fillcolor="#e58139"] ;
231 -> 232 ;
233 [label="gini = 0.0\nsamples = 7\nvalue = [0, 10]", fillcolor="#399de5"] ;
231 -> 233 ;
234 [label="Da <= -0.066\ngini = 0.044\nsamples = 493\nvalue = [779, 18]", fillcolor="#e6843e"] ;
210 -> 234 ;
235 [label="Curvature <= 6.373\ngini = 0.037\nsamples = 490\nvalue = [776, 15]", fillcolor="#e6833d"] ;
234 -> 235 ;
236 [label="W/L Ratio <= -2.313\ngini = 0.03\nsamples = 488\nvalue = [776, 12]", fillcolor="#e5833c"] ;
235 -> 236 ;
237 [label="gini = 0.0\nsamples = 1\nvalue = [0, 1]", fillcolor="#399de5"] ;
236 -> 237 ;
238 [label="EThickness <= -0.227\ngini = 0.028\nsamples = 487\nvalue = [776, 11]", fillcolor="#e5833c"] ;
236 -> 238 ;
239 [label="Transparency <= 0.845\ngini = 0.096\nsamples = 109\nvalue = [151, 8]", fillcolor="#e68843"] ;
238 -> 239 ;
240 [label="Concavity <= 0.33\ngini = 0.498\nsamples = 14\nvalue = [9, 8]", fillcolor="#fcf1e9"] ;
239 -> 240 ;
241 [label="Da <= -0.135\ngini = 0.32\nsamples = 8\nvalue = [8, 2]", fillcolor="#eca06a"] ;
240 -> 241 ;
242 [label="Roundness <= -1.084\ngini = 0.198\nsamples = 7\nvalue = [8, 1]", fillcolor="#e89152"] ;
241 -> 242 ;
243 [label="gini = 0.0\nsamples = 6\nvalue = [8, 0]", fillcolor="#e58139"] ;
242 -> 243 ;
244 [label="gini = 0.0\nsamples = 1\nvalue = [0, 1]", fillcolor="#399de5"] ;
242 -> 244 ;
245 [label="gini = 0.0\nsamples = 1\nvalue = [0, 1]", fillcolor="#399de5"] ;
241 -> 245 ;
246 [label="CHull Surface Area <= -0.068\ngini = 0.245\nsamples = 6\nvalue = [1, 6]", fillcolor="#5aade9"] ;
240 -> 246 ;
247 [label="gini = 0.0\nsamples = 5\nvalue = [0, 6]", fillcolor="#399de5"] ;
246 -> 247 ;
248 [label="gini = 0.0\nsamples = 1\nvalue = [1, 0]", fillcolor="#e58139"] ;
246 -> 248 ;
249 [label="gini = 0.0\nsamples = 95\nvalue = [142, 0]", fillcolor="#e58139"] ;
239 -> 249 ;
250 [label="Sphericity <= -0.988\ngini = 0.01\nsamples = 378\nvalue = [625, 3]", fillcolor="#e5823a"] ;
238 -> 250 ;
251 [label="Circularity <= -1.07\ngini = 0.018\nsamples = 192\nvalue = [324, 3]", fillcolor="#e5823b"] ;
250 -> 251 ;
252 [label="FThickness <= -0.208\ngini = 0.012\nsamples = 191\nvalue = [324, 2]", fillcolor="#e5823a"] ;
251 -> 252 ;
253 [label="Convexity <= 0.058\ngini = 0.054\nsamples = 23\nvalue = [35, 1]", fillcolor="#e6853f"] ;
252 -> 253 ;
254 [label="Da <= -0.124\ngini = 0.5\nsamples = 2\nvalue = [1, 1]", fillcolor="#ffffff"] ;
253 -> 254 ;
255 [label="gini = 0.0\nsamples = 1\nvalue = [1, 0]", fillcolor="#e58139"] ;
254 -> 255 ;
256 [label="gini = 0.0\nsamples = 1\nvalue = [0, 1]", fillcolor="#399de5"] ;
254 -> 256 ;
257 [label="gini = 0.0\nsamples = 21\nvalue = [34, 0]", fillcolor="#e58139"] ;
253 -> 257 ;
258 [label="Roundness <= -0.965\ngini = 0.007\nsamples = 168\nvalue = [289, 1]", fillcolor="#e5813a"] ;
252 -> 258 ;
259 [label="gini = 0.0\nsamples = 163\nvalue = [283, 0]", fillcolor="#e58139"] ;
258 -> 259 ;
260 [label="Surface Area <= -0.068\ngini = 0.245\nsamples = 5\nvalue = [6, 1]", fillcolor="#e9965a"] ;
258 -> 260 ;
261 [label="gini = 0.0\nsamples = 4\nvalue = [6, 0]", fillcolor="#e58139"] ;
260 -> 261 ;
262 [label="gini = 0.0\nsamples = 1\nvalue = [0, 1]", fillcolor="#399de5"] ;
260 -> 262 ;
263 [label="gini = 0.0\nsamples = 1\nvalue = [0, 1]", fillcolor="#399de5"] ;
251 -> 263 ;
264 [label="gini = 0.0\nsamples = 186\nvalue = [301, 0]", fillcolor="#e58139"] ;
250 -> 264 ;
265 [label="gini = 0.0\nsamples = 2\nvalue = [0, 3]", fillcolor="#399de5"] ;
235 -> 265 ;
266 [label="Convexity <= 0.174\ngini = 0.5\nsamples = 3\nvalue = [3, 3]", fillcolor="#ffffff"] ;
234 -> 266 ;
267 [label="gini = 0.0\nsamples = 2\nvalue = [3, 0]", fillcolor="#e58139"] ;
266 -> 267 ;
268 [label="gini = 0.0\nsamples = 1\nvalue = [0, 3]", fillcolor="#399de5"] ;
266 -> 268 ;
269 [label="Transparency <= 0.544\ngini = 0.474\nsamples = 687\nvalue = [678, 426]", fillcolor="#f5d0b5"] ;
129 -> 269 ;
270 [label="Sphericity <= -0.643\ngini = 0.419\nsamples = 366\nvalue = [176, 413]", fillcolor="#8dc7f0"] ;
269 -> 270 ;
271 [label="L/W Ratio <= -0.02\ngini = 0.26\nsamples = 6\nvalue = [11, 2]", fillcolor="#ea985d"] ;
270 -> 271 ;
272 [label="gini = 0.0\nsamples = 2\nvalue = [0, 2]", fillcolor="#399de5"] ;
271 -> 272 ;
273 [label="gini = 0.0\nsamples = 4\nvalue = [11, 0]", fillcolor="#e58139"] ;
271 -> 273 ;
274 [label="Transparency <= 0.137\ngini = 0.409\nsamples = 360\nvalue = [165, 411]", fillcolor="#88c4ef"] ;
270 -> 274 ;
275 [label="CHull  Area <= -0.067\ngini = 0.319\nsamples = 240\nvalue = [75, 302]", fillcolor="#6ab5eb"] ;
274 -> 275 ;
276 [label="Fiber Width <= -0.18\ngini = 0.287\nsamples = 233\nvalue = [63, 300]", fillcolor="#63b2ea"] ;
275 -> 276 ;
277 [label="gini = 0.0\nsamples = 6\nvalue = [10, 0]", fillcolor="#e58139"] ;
276 -> 277 ;
278 [label="ELength <= -0.152\ngini = 0.255\nsamples = 227\nvalue = [53, 300]", fillcolor="#5caeea"] ;
276 -> 278 ;
279 [label="Ellipticity <= -0.1\ngini = 0.462\nsamples = 31\nvalue = [17, 30]", fillcolor="#a9d5f4"] ;
278 -> 279 ;
280 [label="W/L Ratio <= -0.353\ngini = 0.405\nsamples = 26\nvalue = [11, 28]", fillcolor="#87c4ef"] ;
279 -> 280 ;
281 [label="Fiber Width <= -0.175\ngini = 0.388\nsamples = 25\nvalue = [10, 28]", fillcolor="#80c0ee"] ;
280 -> 281 ;
282 [label="gini = 0.0\nsamples = 3\nvalue = [0, 7]", fillcolor="#399de5"] ;
281 -> 282 ;
283 [label="Da <= -0.187\ngini = 0.437\nsamples = 22\nvalue = [10, 21]", fillcolor="#97ccf1"] ;
281 -> 283 ;
284 [label="EThickness <= -0.265\ngini = 0.444\nsamples = 16\nvalue = [8, 16]", fillcolor="#9ccef2"] ;
283 -> 284 ;
285 [label="Fiber Length <= -0.108\ngini = 0.444\nsamples = 14\nvalue = [7, 14]", fillcolor="#9ccef2"] ;
284 -> 285 ;
286 [label="Fiber Length <= -0.139\ngini = 0.444\nsamples = 7\nvalue = [6, 3]", fillcolor="#f2c09c"] ;
285 -> 286 ;
287 [label="Fiber Length <= -0.151\ngini = 0.375\nsamples = 4\nvalue = [1, 3]", fillcolor="#7bbeee"] ;
286 -> 287 ;
288 [label="gini = 0.0\nsamples = 1\nvalue = [1, 0]", fillcolor="#e58139"] ;
287 -> 288 ;
289 [label="gini = 0.0\nsamples = 3\nvalue = [0, 3]", fillcolor="#399de5"] ;
287 -> 289 ;
290 [label="gini = 0.0\nsamples = 3\nvalue = [5, 0]", fillcolor="#e58139"] ;
286 -> 290 ;
291 [label="Fiber Length <= -0.0\ngini = 0.153\nsamples = 7\nvalue = [1, 11]", fillcolor="#4ba6e7"] ;
285 -> 291 ;
292 [label="Fiber Width <= -0.066\ngini = 0.278\nsamples = 4\nvalue = [1, 5]", fillcolor="#61b1ea"] ;
291 -> 292 ;
293 [label="gini = 0.0\nsamples = 1\nvalue = [1, 0]", fillcolor="#e58139"] ;
292 -> 293 ;
294 [label="gini = 0.0\nsamples = 3\nvalue = [0, 5]", fillcolor="#399de5"] ;
292 -> 294 ;
295 [label="gini = 0.0\nsamples = 3\nvalue = [0, 6]", fillcolor="#399de5"] ;
291 -> 295 ;
296 [label="Fiber Length <= -0.091\ngini = 0.444\nsamples = 2\nvalue = [1, 2]", fillcolor="#9ccef2"] ;
284 -> 296 ;
297 [label="gini = 0.0\nsamples = 1\nvalue = [1, 0]", fillcolor="#e58139"] ;
296 -> 297 ;
298 [label="gini = 0.0\nsamples = 1\nvalue = [0, 2]", fillcolor="#399de5"] ;
296 -> 298 ;
299 [label="Fiber Length <= -0.048\ngini = 0.408\nsamples = 6\nvalue = [2, 5]", fillcolor="#88c4ef"] ;
283 -> 299 ;
300 [label="Fiber Width <= -0.017\ngini = 0.278\nsamples = 5\nvalue = [1, 5]", fillcolor="#61b1ea"] ;
299 -> 300 ;
301 [label="gini = 0.0\nsamples = 4\nvalue = [0, 5]", fillcolor="#399de5"] ;
300 -> 301 ;
302 [label="gini = 0.0\nsamples = 1\nvalue = [1, 0]", fillcolor="#e58139"] ;
300 -> 302 ;
303 [label="gini = 0.0\nsamples = 1\nvalue = [1, 0]", fillcolor="#e58139"] ;
299 -> 303 ;
304 [label="gini = 0.0\nsamples = 1\nvalue = [1, 0]", fillcolor="#e58139"] ;
280 -> 304 ;
305 [label="Roundness <= -0.709\ngini = 0.375\nsamples = 5\nvalue = [6, 2]", fillcolor="#eeab7b"] ;
279 -> 305 ;
306 [label="gini = 0.0\nsamples = 1\nvalue = [0, 1]", fillcolor="#399de5"] ;
305 -> 306 ;
307 [label="Fiber Width <= -0.127\ngini = 0.245\nsamples = 4\nvalue = [6, 1]", fillcolor="#e9965a"] ;
305 -> 307 ;
308 [label="gini = 0.0\nsamples = 1\nvalue = [0, 1]", fillcolor="#399de5"] ;
307 -> 308 ;
309 [label="gini = 0.0\nsamples = 3\nvalue = [6, 0]", fillcolor="#e58139"] ;
307 -> 309 ;
310 [label="Surface Area <= -0.068\ngini = 0.208\nsamples = 196\nvalue = [36, 270]", fillcolor="#53aae8"] ;
278 -> 310 ;
311 [label="FWidth <= -0.146\ngini = 0.139\nsamples = 156\nvalue = [19, 233]", fillcolor="#49a5e7"] ;
310 -> 311 ;
312 [label="Transparency <= 0.036\ngini = 0.49\nsamples = 2\nvalue = [4, 3]", fillcolor="#f8e0ce"] ;
311 -> 312 ;
313 [label="gini = 0.0\nsamples = 1\nvalue = [0, 3]", fillcolor="#399de5"] ;
312 -> 313 ;
314 [label="gini = 0.0\nsamples = 1\nvalue = [4, 0]", fillcolor="#e58139"] ;
312 -> 314 ;
315 [label="Transparency <= -0.037\ngini = 0.115\nsamples = 154\nvalue = [15, 230]", fillcolor="#46a3e7"] ;
311 -> 315 ;
316 [label="gini = 0.0\nsamples = 90\nvalue = [0, 138]", fillcolor="#399de5"] ;
315 -> 316 ;
317 [label="Surface Area <= -0.068\ngini = 0.241\nsamples = 64\nvalue = [15, 92]", fillcolor="#59ade9"] ;
315 -> 317 ;
318 [label="Fiber Length <= -0.094\ngini = 0.06\nsamples = 38\nvalue = [2, 63]", fillcolor="#3fa0e6"] ;
317 -> 318 ;
319 [label="gini = 0.0\nsamples = 31\nvalue = [0, 54]", fillcolor="#399de5"] ;
318 -> 319 ;
320 [label="Sphericity <= 0.127\ngini = 0.298\nsamples = 7\nvalue = [2, 9]", fillcolor="#65b3eb"] ;
318 -> 320 ;
321 [label="CHull Perimeter <= -0.113\ngini = 0.18\nsamples = 6\nvalue = [1, 9]", fillcolor="#4fa8e8"] ;
320 -> 321 ;
322 [label="gini = 0.0\nsamples = 5\nvalue = [0, 9]", fillcolor="#399de5"] ;
321 -> 322 ;
323 [label="gini = 0.0\nsamples = 1\nvalue = [1, 0]", fillcolor="#e58139"] ;
321 -> 323 ;
324 [label="gini = 0.0\nsamples = 1\nvalue = [1, 0]", fillcolor="#e58139"] ;
320 -> 324 ;
325 [label="Transparency <= 0.041\ngini = 0.427\nsamples = 26\nvalue = [13, 29]", fillcolor="#92c9f1"] ;
317 -> 325 ;
326 [label="Angularity <= 0.153\ngini = 0.469\nsamples = 11\nvalue = [10, 6]", fillcolor="#f5cdb0"] ;
325 -> 326 ;
327 [label="Concavity <= -0.285\ngini = 0.32\nsamples = 3\nvalue = [1, 4]", fillcolor="#6ab6ec"] ;
326 -> 327 ;
328 [label="gini = 0.0\nsamples = 1\nvalue = [1, 0]", fillcolor="#e58139"] ;
327 -> 328 ;
329 [label="gini = 0.0\nsamples = 2\nvalue = [0, 4]", fillcolor="#399de5"] ;
327 -> 329 ;
330 [label="FThickness <= -0.131\ngini = 0.298\nsamples = 8\nvalue = [9, 2]", fillcolor="#eb9d65"] ;
326 -> 330 ;
331 [label="gini = 0.0\nsamples = 1\nvalue = [0, 1]", fillcolor="#399de5"] ;
330 -> 331 ;
332 [label="Compactness <= -0.272\ngini = 0.18\nsamples = 7\nvalue = [9, 1]", fillcolor="#e88f4f"] ;
330 -> 332 ;
333 [label="Perimeter <= -0.101\ngini = 0.375\nsamples = 2\nvalue = [3, 1]", fillcolor="#eeab7b"] ;
332 -> 333 ;
334 [label="gini = 0.0\nsamples = 1\nvalue = [3, 0]", fillcolor="#e58139"] ;
333 -> 334 ;
335 [label="gini = 0.0\nsamples = 1\nvalue = [0, 1]", fillcolor="#399de5"] ;
333 -> 335 ;
336 [label="gini = 0.0\nsamples = 5\nvalue = [6, 0]", fillcolor="#e58139"] ;
332 -> 336 ;
337 [label="Concavity <= -0.259\ngini = 0.204\nsamples = 15\nvalue = [3, 23]", fillcolor="#53aae8"] ;
325 -> 337 ;
338 [label="W/L Ratio <= 0.219\ngini = 0.355\nsamples = 7\nvalue = [3, 10]", fillcolor="#74baed"] ;
337 -> 338 ;
339 [label="Convexity <= 0.29\ngini = 0.278\nsamples = 6\nvalue = [2, 10]", fillcolor="#61b1ea"] ;
338 -> 339 ;
340 [label="gini = 0.0\nsamples = 1\nvalue = [1, 0]", fillcolor="#e58139"] ;
339 -> 340 ;
341 [label="Extent <= -0.124\ngini = 0.165\nsamples = 5\nvalue = [1, 10]", fillcolor="#4da7e8"] ;
339 -> 341 ;
342 [label="gini = 0.0\nsamples = 1\nvalue = [1, 0]", fillcolor="#e58139"] ;
341 -> 342 ;
343 [label="gini = 0.0\nsamples = 4\nvalue = [0, 10]", fillcolor="#399de5"] ;
341 -> 343 ;
344 [label="gini = 0.0\nsamples = 1\nvalue = [1, 0]", fillcolor="#e58139"] ;
338 -> 344 ;
345 [label="gini = 0.0\nsamples = 8\nvalue = [0, 13]", fillcolor="#399de5"] ;
337 -> 345 ;
346 [label="CHull Surface Area <= -0.068\ngini = 0.431\nsamples = 40\nvalue = [17, 37]", fillcolor="#94caf1"] ;
310 -> 346 ;
347 [label="FLength <= -0.095\ngini = 0.337\nsamples = 7\nvalue = [11, 3]", fillcolor="#eca36f"] ;
346 -> 347 ;
348 [label="gini = 0.0\nsamples = 1\nvalue = [0, 2]", fillcolor="#399de5"] ;
347 -> 348 ;
349 [label="Angularity <= 0.747\ngini = 0.153\nsamples = 6\nvalue = [11, 1]", fillcolor="#e78c4b"] ;
347 -> 349 ;
350 [label="gini = 0.0\nsamples = 5\nvalue = [11, 0]", fillcolor="#e58139"] ;
349 -> 350 ;
351 [label="gini = 0.0\nsamples = 1\nvalue = [0, 1]", fillcolor="#399de5"] ;
349 -> 351 ;
352 [label="Solidity <= 0.246\ngini = 0.255\nsamples = 33\nvalue = [6, 34]", fillcolor="#5caeea"] ;
346 -> 352 ;
353 [label="Dp <= -0.067\ngini = 0.083\nsamples = 18\nvalue = [1, 22]", fillcolor="#42a1e6"] ;
352 -> 353 ;
354 [label="gini = 0.0\nsamples = 17\nvalue = [0, 22]", fillcolor="#399de5"] ;
353 -> 354 ;
355 [label="gini = 0.0\nsamples = 1\nvalue = [1, 0]", fillcolor="#e58139"] ;
353 -> 355 ;
356 [label="Ellipse Ratio <= -0.255\ngini = 0.415\nsamples = 15\nvalue = [5, 12]", fillcolor="#8bc6f0"] ;
352 -> 356 ;
357 [label="Concavity <= -0.272\ngini = 0.486\nsamples = 10\nvalue = [5, 7]", fillcolor="#c6e3f8"] ;
356 -> 357 ;
358 [label="Concavity <= -0.518\ngini = 0.219\nsamples = 8\nvalue = [1, 7]", fillcolor="#55abe9"] ;
357 -> 358 ;
359 [label="gini = 0.0\nsamples = 1\nvalue = [1, 0]", fillcolor="#e58139"] ;
358 -> 359 ;
360 [label="gini = 0.0\nsamples = 7\nvalue = [0, 7]", fillcolor="#399de5"] ;
358 -> 360 ;
361 [label="gini = 0.0\nsamples = 2\nvalue = [4, 0]", fillcolor="#e58139"] ;
357 -> 361 ;
362 [label="gini = 0.0\nsamples = 5\nvalue = [0, 5]", fillcolor="#399de5"] ;
356 -> 362 ;
363 [label="FWidth <= -0.108\ngini = 0.245\nsamples = 7\nvalue = [12, 2]", fillcolor="#e9965a"] ;
275 -> 363 ;
364 [label="gini = 0.0\nsamples = 1\nvalue = [0, 2]", fillcolor="#399de5"] ;
363 -> 364 ;
365 [label="gini = 0.0\nsamples = 6\nvalue = [12, 0]", fillcolor="#e58139"] ;
363 -> 365 ;
366 [label="Circularity <= -0.057\ngini = 0.495\nsamples = 120\nvalue = [90, 109]", fillcolor="#dceefa"] ;
274 -> 366 ;
367 [label="Compactness <= -0.46\ngini = 0.411\nsamples = 61\nvalue = [30, 74]", fillcolor="#89c5f0"] ;
366 -> 367 ;
368 [label="Angularity <= 0.153\ngini = 0.496\nsamples = 32\nvalue = [25, 30]", fillcolor="#deeffb"] ;
367 -> 368 ;
369 [label="gini = 0.0\nsamples = 3\nvalue = [6, 0]", fillcolor="#e58139"] ;
368 -> 369 ;
370 [label="W/L Ratio <= -0.926\ngini = 0.475\nsamples = 29\nvalue = [19, 30]", fillcolor="#b6dbf5"] ;
368 -> 370 ;
371 [label="gini = 0.0\nsamples = 6\nvalue = [0, 11]", fillcolor="#399de5"] ;
370 -> 371 ;
372 [label="Surface Area <= -0.069\ngini = 0.5\nsamples = 23\nvalue = [19, 19]", fillcolor="#ffffff"] ;
370 -> 372 ;
373 [label="Ellipse Ratio <= -0.438\ngini = 0.434\nsamples = 13\nvalue = [7, 15]", fillcolor="#95cbf1"] ;
372 -> 373 ;
374 [label="FLength <= -0.126\ngini = 0.291\nsamples = 10\nvalue = [3, 14]", fillcolor="#63b2eb"] ;
373 -> 374 ;
375 [label="Fiber Length <= -0.118\ngini = 0.49\nsamples = 5\nvalue = [3, 4]", fillcolor="#cee6f8"] ;
374 -> 375 ;
376 [label="gini = 0.0\nsamples = 2\nvalue = [0, 4]", fillcolor="#399de5"] ;
375 -> 376 ;
377 [label="gini = 0.0\nsamples = 3\nvalue = [3, 0]", fillcolor="#e58139"] ;
375 -> 377 ;
378 [label="gini = 0.0\nsamples = 5\nvalue = [0, 10]", fillcolor="#399de5"] ;
374 -> 378 ;
379 [label="Dp <= -0.133\ngini = 0.32\nsamples = 3\nvalue = [4, 1]", fillcolor="#eca06a"] ;
373 -> 379 ;
380 [label="gini = 0.0\nsamples = 2\nvalue = [4, 0]", fillcolor="#e58139"] ;
379 -> 380 ;
381 [label="gini = 0.0\nsamples = 1\nvalue = [0, 1]", fillcolor="#399de5"] ;
379 -> 381 ;
382 [label="CHull Perimeter <= -0.076\ngini = 0.375\nsamples = 10\nvalue = [12, 4]", fillcolor="#eeab7b"] ;
372 -> 382 ;
383 [label="Da <= -0.117\ngini = 0.245\nsamples = 9\nvalue = [12, 2]", fillcolor="#e9965a"] ;
382 -> 383 ;
384 [label="gini = 0.0\nsamples = 3\nvalue = [8, 0]", fillcolor="#e58139"] ;
383 -> 384 ;
385 [label="Da <= -0.103\ngini = 0.444\nsamples = 6\nvalue = [4, 2]", fillcolor="#f2c09c"] ;
383 -> 385 ;
386 [label="gini = 0.0\nsamples = 2\nvalue = [0, 2]", fillcolor="#399de5"] ;
385 -> 386 ;
387 [label="gini = 0.0\nsamples = 4\nvalue = [4, 0]", fillcolor="#e58139"] ;
385 -> 387 ;
388 [label="gini = 0.0\nsamples = 1\nvalue = [0, 2]", fillcolor="#399de5"] ;
382 -> 388 ;
389 [label="T/L Aspect Ratio <= 0.036\ngini = 0.183\nsamples = 29\nvalue = [5, 44]", fillcolor="#50a8e8"] ;
367 -> 389 ;
390 [label="Fiber Width <= -0.132\ngini = 0.153\nsamples = 28\nvalue = [4, 44]", fillcolor="#4ba6e7"] ;
389 -> 390 ;
391 [label="gini = 0.0\nsamples = 1\nvalue = [1, 0]", fillcolor="#e58139"] ;
390 -> 391 ;
392 [label="FLength <= -0.087\ngini = 0.12\nsamples = 27\nvalue = [3, 44]", fillcolor="#46a4e7"] ;
390 -> 392 ;
393 [label="Transparency <= 0.191\ngini = 0.048\nsamples = 23\nvalue = [1, 40]", fillcolor="#3e9fe6"] ;
392 -> 393 ;
394 [label="W/L Ratio <= -0.686\ngini = 0.18\nsamples = 7\nvalue = [1, 9]", fillcolor="#4fa8e8"] ;
393 -> 394 ;
395 [label="Surface Area <= -0.068\ngini = 0.375\nsamples = 3\nvalue = [1, 3]", fillcolor="#7bbeee"] ;
394 -> 395 ;
396 [label="gini = 0.0\nsamples = 1\nvalue = [1, 0]", fillcolor="#e58139"] ;
395 -> 396 ;
397 [label="gini = 0.0\nsamples = 2\nvalue = [0, 3]", fillcolor="#399de5"] ;
395 -> 397 ;
398 [label="gini = 0.0\nsamples = 4\nvalue = [0, 6]", fillcolor="#399de5"] ;
394 -> 398 ;
399 [label="gini = 0.0\nsamples = 16\nvalue = [0, 31]", fillcolor="#399de5"] ;
393 -> 399 ;
400 [label="CHull Perimeter <= -0.076\ngini = 0.444\nsamples = 4\nvalue = [2, 4]", fillcolor="#9ccef2"] ;
392 -> 400 ;
401 [label="gini = 0.0\nsamples = 2\nvalue = [2, 0]", fillcolor="#e58139"] ;
400 -> 401 ;
402 [label="gini = 0.0\nsamples = 2\nvalue = [0, 4]", fillcolor="#399de5"] ;
400 -> 402 ;
403 [label="gini = 0.0\nsamples = 1\nvalue = [1, 0]", fillcolor="#e58139"] ;
389 -> 403 ;
404 [label="CHull Perimeter <= -0.145\ngini = 0.465\nsamples = 59\nvalue = [60, 35]", fillcolor="#f4caac"] ;
366 -> 404 ;
405 [label="Convexity <= 0.174\ngini = 0.219\nsamples = 10\nvalue = [2, 14]", fillcolor="#55abe9"] ;
404 -> 405 ;
406 [label="gini = 0.0\nsamples = 1\nvalue = [1, 0]", fillcolor="#e58139"] ;
405 -> 406 ;
407 [label="Transparency <= 0.173\ngini = 0.124\nsamples = 9\nvalue = [1, 14]", fillcolor="#47a4e7"] ;
405 -> 407 ;
408 [label="gini = 0.0\nsamples = 1\nvalue = [1, 0]", fillcolor="#e58139"] ;
407 -> 408 ;
409 [label="gini = 0.0\nsamples = 8\nvalue = [0, 14]", fillcolor="#399de5"] ;
407 -> 409 ;
410 [label="Curvature <= 0.126\ngini = 0.39\nsamples = 49\nvalue = [58, 21]", fillcolor="#eeaf81"] ;
404 -> 410 ;
411 [label="Concavity <= -0.129\ngini = 0.33\nsamples = 45\nvalue = [57, 15]", fillcolor="#eca26d"] ;
410 -> 411 ;
412 [label="Roundness <= 0.167\ngini = 0.302\nsamples = 43\nvalue = [57, 13]", fillcolor="#eb9e66"] ;
411 -> 412 ;
413 [label="Perimeter <= -0.129\ngini = 0.239\nsamples = 40\nvalue = [56, 9]", fillcolor="#e99559"] ;
412 -> 413 ;
414 [label="CHull Perimeter <= -0.14\ngini = 0.432\nsamples = 16\nvalue = [13, 6]", fillcolor="#f1bb94"] ;
413 -> 414 ;
415 [label="gini = 0.0\nsamples = 7\nvalue = [8, 0]", fillcolor="#e58139"] ;
414 -> 415 ;
416 [label="FWidth <= -0.125\ngini = 0.496\nsamples = 9\nvalue = [5, 6]", fillcolor="#deeffb"] ;
414 -> 416 ;
417 [label="Perimeter <= -0.136\ngini = 0.278\nsamples = 5\nvalue = [1, 5]", fillcolor="#61b1ea"] ;
416 -> 417 ;
418 [label="gini = 0.0\nsamples = 4\nvalue = [0, 5]", fillcolor="#399de5"] ;
417 -> 418 ;
419 [label="gini = 0.0\nsamples = 1\nvalue = [1, 0]", fillcolor="#e58139"] ;
417 -> 419 ;
420 [label="FLength <= -0.112\ngini = 0.32\nsamples = 4\nvalue = [4, 1]", fillcolor="#eca06a"] ;
416 -> 420 ;
421 [label="gini = 0.0\nsamples = 3\nvalue = [4, 0]", fillcolor="#e58139"] ;
420 -> 421 ;
422 [label="gini = 0.0\nsamples = 1\nvalue = [0, 1]", fillcolor="#399de5"] ;
420 -> 422 ;
423 [label="Roundness <= 0.007\ngini = 0.122\nsamples = 24\nvalue = [43, 3]", fillcolor="#e78a47"] ;
413 -> 423 ;
424 [label="ELength <= -0.081\ngini = 0.045\nsamples = 22\nvalue = [42, 1]", fillcolor="#e6843e"] ;
423 -> 424 ;
425 [label="gini = 0.0\nsamples = 18\nvalue = [38, 0]", fillcolor="#e58139"] ;
424 -> 425 ;
426 [label="CHull Surface Area <= -0.068\ngini = 0.32\nsamples = 4\nvalue = [4, 1]", fillcolor="#eca06a"] ;
424 -> 426 ;
427 [label="gini = 0.0\nsamples = 1\nvalue = [0, 1]", fillcolor="#399de5"] ;
426 -> 427 ;
428 [label="gini = 0.0\nsamples = 3\nvalue = [4, 0]", fillcolor="#e58139"] ;
426 -> 428 ;
429 [label="CHull Perimeter <= -0.118\ngini = 0.444\nsamples = 2\nvalue = [1, 2]", fillcolor="#9ccef2"] ;
423 -> 429 ;
430 [label="gini = 0.0\nsamples = 1\nvalue = [1, 0]", fillcolor="#e58139"] ;
429 -> 430 ;
431 [label="gini = 0.0\nsamples = 1\nvalue = [0, 2]", fillcolor="#399de5"] ;
429 -> 431 ;
432 [label="FWidth <= -0.093\ngini = 0.32\nsamples = 3\nvalue = [1, 4]", fillcolor="#6ab6ec"] ;
412 -> 432 ;
433 [label="gini = 0.0\nsamples = 2\nvalue = [0, 4]", fillcolor="#399de5"] ;
432 -> 433 ;
434 [label="gini = 0.0\nsamples = 1\nvalue = [1, 0]", fillcolor="#e58139"] ;
432 -> 434 ;
435 [label="gini = 0.0\nsamples = 2\nvalue = [0, 2]", fillcolor="#399de5"] ;
411 -> 435 ;
436 [label="Convexity <= 0.087\ngini = 0.245\nsamples = 4\nvalue = [1, 6]", fillcolor="#5aade9"] ;
410 -> 436 ;
437 [label="gini = 0.0\nsamples = 3\nvalue = [0, 6]", fillcolor="#399de5"] ;
436 -> 437 ;
438 [label="gini = 0.0\nsamples = 1\nvalue = [1, 0]", fillcolor="#e58139"] ;
436 -> 438 ;
439 [label="Fiber Length <= -0.035\ngini = 0.049\nsamples = 321\nvalue = [502, 13]", fillcolor="#e6843e"] ;
269 -> 439 ;
440 [label="FLength <= -0.147\ngini = 0.042\nsamples = 319\nvalue = [501, 11]", fillcolor="#e6843d"] ;
439 -> 440 ;
441 [label="CHull Surface Area <= -0.069\ngini = 0.185\nsamples = 16\nvalue = [26, 3]", fillcolor="#e89050"] ;
440 -> 441 ;
442 [label="gini = 0.0\nsamples = 13\nvalue = [23, 0]", fillcolor="#e58139"] ;
441 -> 442 ;
443 [label="Fiber Length <= -0.135\ngini = 0.5\nsamples = 3\nvalue = [3, 3]", fillcolor="#ffffff"] ;
441 -> 443 ;
444 [label="gini = 0.0\nsamples = 1\nvalue = [3, 0]", fillcolor="#e58139"] ;
443 -> 444 ;
445 [label="gini = 0.0\nsamples = 2\nvalue = [0, 3]", fillcolor="#399de5"] ;
443 -> 445 ;
446 [label="Convexity <= -0.727\ngini = 0.033\nsamples = 303\nvalue = [475, 8]", fillcolor="#e5833c"] ;
440 -> 446 ;
447 [label="T/L Aspect Ratio <= -0.493\ngini = 0.375\nsamples = 10\nvalue = [12, 4]", fillcolor="#eeab7b"] ;
446 -> 447 ;
448 [label="FThickness <= -0.183\ngini = 0.32\nsamples = 3\nvalue = [1, 4]", fillcolor="#6ab6ec"] ;
447 -> 448 ;
449 [label="gini = 0.0\nsamples = 1\nvalue = [1, 0]", fillcolor="#e58139"] ;
448 -> 449 ;
450 [label="gini = 0.0\nsamples = 2\nvalue = [0, 4]", fillcolor="#399de5"] ;
448 -> 450 ;
451 [label="gini = 0.0\nsamples = 7\nvalue = [11, 0]", fillcolor="#e58139"] ;
447 -> 451 ;
452 [label="Extent <= 0.522\ngini = 0.017\nsamples = 293\nvalue = [463, 4]", fillcolor="#e5823b"] ;
446 -> 452 ;
453 [label="Circularity <= 0.366\ngini = 0.009\nsamples = 275\nvalue = [435, 2]", fillcolor="#e5823a"] ;
452 -> 453 ;
454 [label="FWidth <= -0.143\ngini = 0.005\nsamples = 262\nvalue = [417, 1]", fillcolor="#e58139"] ;
453 -> 454 ;
455 [label="Extent <= -0.083\ngini = 0.077\nsamples = 16\nvalue = [24, 1]", fillcolor="#e68641"] ;
454 -> 455 ;
456 [label="gini = 0.0\nsamples = 1\nvalue = [0, 1]", fillcolor="#399de5"] ;
455 -> 456 ;
457 [label="gini = 0.0\nsamples = 15\nvalue = [24, 0]", fillcolor="#e58139"] ;
455 -> 457 ;
458 [label="gini = 0.0\nsamples = 246\nvalue = [393, 0]", fillcolor="#e58139"] ;
454 -> 458 ;
459 [label="W/L Ratio <= -0.189\ngini = 0.1\nsamples = 13\nvalue = [18, 1]", fillcolor="#e68844"] ;
453 -> 459 ;
460 [label="gini = 0.0\nsamples = 1\nvalue = [0, 1]", fillcolor="#399de5"] ;
459 -> 460 ;
461 [label="gini = 0.0\nsamples = 12\nvalue = [18, 0]", fillcolor="#e58139"] ;
459 -> 461 ;
462 [label="CHull Perimeter <= -0.136\ngini = 0.124\nsamples = 18\nvalue = [28, 2]", fillcolor="#e78a47"] ;
452 -> 462 ;
463 [label="gini = 0.0\nsamples = 1\nvalue = [0, 1]", fillcolor="#399de5"] ;
462 -> 463 ;
464 [label="Transparency <= 0.645\ngini = 0.067\nsamples = 17\nvalue = [28, 1]", fillcolor="#e68640"] ;
462 -> 464 ;
465 [label="FThickness <= -0.168\ngini = 0.32\nsamples = 3\nvalue = [4, 1]", fillcolor="#eca06a"] ;
464 -> 465 ;
466 [label="gini = 0.0\nsamples = 1\nvalue = [0, 1]", fillcolor="#399de5"] ;
465 -> 466 ;
467 [label="gini = 0.0\nsamples = 2\nvalue = [4, 0]", fillcolor="#e58139"] ;
465 -> 467 ;
468 [label="gini = 0.0\nsamples = 14\nvalue = [24, 0]", fillcolor="#e58139"] ;
464 -> 468 ;
469 [label="Sieve <= -0.081\ngini = 0.444\nsamples = 2\nvalue = [1, 2]", fillcolor="#9ccef2"] ;
439 -> 469 ;
470 [label="gini = 0.0\nsamples = 1\nvalue = [0, 2]", fillcolor="#399de5"] ;
469 -> 470 ;
471 [label="gini = 0.0\nsamples = 1\nvalue = [1, 0]", fillcolor="#e58139"] ;
469 -> 471 ;
472 [label="Concavity <= 0.065\ngini = 0.497\nsamples = 733\nvalue = [533, 620]", fillcolor="#e3f1fb"] ;
52 -> 472 ;
473 [label="Dp <= -0.027\ngini = 0.47\nsamples = 366\nvalue = [357, 217]", fillcolor="#f5ceb1"] ;
472 -> 473 ;
474 [label="CHull  Area <= -0.066\ngini = 0.5\nsamples = 147\nvalue = [112, 118]", fillcolor="#f5fafe"] ;
473 -> 474 ;
475 [label="Extent <= -0.019\ngini = 0.498\nsamples = 129\nvalue = [106, 92]", fillcolor="#fceee5"] ;
474 -> 475 ;
476 [label="Roundness <= -0.281\ngini = 0.363\nsamples = 42\nvalue = [48, 15]", fillcolor="#eda877"] ;
475 -> 476 ;
477 [label="FWidth <= -0.022\ngini = 0.156\nsamples = 32\nvalue = [43, 4]", fillcolor="#e78d4b"] ;
476 -> 477 ;
478 [label="ELength <= -0.024\ngini = 0.085\nsamples = 31\nvalue = [43, 2]", fillcolor="#e68742"] ;
477 -> 478 ;
479 [label="gini = 0.0\nsamples = 26\nvalue = [38, 0]", fillcolor="#e58139"] ;
478 -> 479 ;
480 [label="T/L Aspect Ratio <= -0.609\ngini = 0.408\nsamples = 5\nvalue = [5, 2]", fillcolor="#efb388"] ;
478 -> 480 ;
481 [label="gini = 0.0\nsamples = 4\nvalue = [5, 0]", fillcolor="#e58139"] ;
480 -> 481 ;
482 [label="gini = 0.0\nsamples = 1\nvalue = [0, 2]", fillcolor="#399de5"] ;
480 -> 482 ;
483 [label="gini = 0.0\nsamples = 1\nvalue = [0, 2]", fillcolor="#399de5"] ;
477 -> 483 ;
484 [label="T/L Aspect Ratio <= 0.03\ngini = 0.43\nsamples = 10\nvalue = [5, 11]", fillcolor="#93caf1"] ;
476 -> 484 ;
485 [label="L/T Ratio <= -0.184\ngini = 0.18\nsamples = 5\nvalue = [1, 9]", fillcolor="#4fa8e8"] ;
484 -> 485 ;
486 [label="gini = 0.0\nsamples = 4\nvalue = [0, 9]", fillcolor="#399de5"] ;
485 -> 486 ;
487 [label="gini = 0.0\nsamples = 1\nvalue = [1, 0]", fillcolor="#e58139"] ;
485 -> 487 ;
488 [label="Compactness <= -0.106\ngini = 0.444\nsamples = 5\nvalue = [4, 2]", fillcolor="#f2c09c"] ;
484 -> 488 ;
489 [label="gini = 0.0\nsamples = 1\nvalue = [0, 1]", fillcolor="#399de5"] ;
488 -> 489 ;
490 [label="Compactness <= 0.111\ngini = 0.32\nsamples = 4\nvalue = [4, 1]", fillcolor="#eca06a"] ;
488 -> 490 ;
491 [label="gini = 0.0\nsamples = 3\nvalue = [4, 0]", fillcolor="#e58139"] ;
490 -> 491 ;
492 [label="gini = 0.0\nsamples = 1\nvalue = [0, 1]", fillcolor="#399de5"] ;
490 -> 492 ;
493 [label="FWidth <= -0.095\ngini = 0.49\nsamples = 87\nvalue = [58, 77]", fillcolor="#cee7f9"] ;
475 -> 493 ;
494 [label="Ellipse Ratio <= -1.152\ngini = 0.1\nsamples = 12\nvalue = [1, 18]", fillcolor="#44a2e6"] ;
493 -> 494 ;
495 [label="gini = 0.0\nsamples = 1\nvalue = [1, 0]", fillcolor="#e58139"] ;
494 -> 495 ;
496 [label="gini = 0.0\nsamples = 11\nvalue = [0, 18]", fillcolor="#399de5"] ;
494 -> 496 ;
497 [label="Dp <= -0.038\ngini = 0.5\nsamples = 75\nvalue = [57, 59]", fillcolor="#f8fcfe"] ;
493 -> 497 ;
498 [label="Roundness <= 0.319\ngini = 0.497\nsamples = 70\nvalue = [57, 49]", fillcolor="#fbede3"] ;
497 -> 498 ;
499 [label="Perimeter <= -0.072\ngini = 0.5\nsamples = 65\nvalue = [47, 49]", fillcolor="#f7fbfe"] ;
498 -> 499 ;
500 [label="L/T Ratio <= 0.229\ngini = 0.142\nsamples = 9\nvalue = [1, 12]", fillcolor="#49a5e7"] ;
499 -> 500 ;
501 [label="gini = 0.0\nsamples = 8\nvalue = [0, 12]", fillcolor="#399de5"] ;
500 -> 501 ;
502 [label="gini = 0.0\nsamples = 1\nvalue = [1, 0]", fillcolor="#e58139"] ;
500 -> 502 ;
503 [label="FThickness <= -0.069\ngini = 0.494\nsamples = 56\nvalue = [46, 37]", fillcolor="#fae6d8"] ;
499 -> 503 ;
504 [label="Curvature <= 0.256\ngini = 0.208\nsamples = 10\nvalue = [15, 2]", fillcolor="#e89253"] ;
503 -> 504 ;
505 [label="gini = 0.0\nsamples = 9\nvalue = [15, 0]", fillcolor="#e58139"] ;
504 -> 505 ;
506 [label="gini = 0.0\nsamples = 1\nvalue = [0, 2]", fillcolor="#399de5"] ;
504 -> 506 ;
507 [label="ELength <= -0.056\ngini = 0.498\nsamples = 46\nvalue = [31, 35]", fillcolor="#e8f4fc"] ;
503 -> 507 ;
508 [label="FLength <= -0.066\ngini = 0.454\nsamples = 16\nvalue = [15, 8]", fillcolor="#f3c4a3"] ;
507 -> 508 ;
509 [label="Compactness <= 0.262\ngini = 0.42\nsamples = 8\nvalue = [3, 7]", fillcolor="#8ec7f0"] ;
508 -> 509 ;
510 [label="ELength <= -0.071\ngini = 0.219\nsamples = 6\nvalue = [1, 7]", fillcolor="#55abe9"] ;
509 -> 510 ;
511 [label="gini = 0.0\nsamples = 1\nvalue = [1, 0]", fillcolor="#e58139"] ;
510 -> 511 ;
512 [label="gini = 0.0\nsamples = 5\nvalue = [0, 7]", fillcolor="#399de5"] ;
510 -> 512 ;
513 [label="gini = 0.0\nsamples = 2\nvalue = [2, 0]", fillcolor="#e58139"] ;
509 -> 513 ;
514 [label="Ellipse Ratio <= -0.378\ngini = 0.142\nsamples = 8\nvalue = [12, 1]", fillcolor="#e78c49"] ;
508 -> 514 ;
515 [label="gini = 0.0\nsamples = 1\nvalue = [0, 1]", fillcolor="#399de5"] ;
514 -> 515 ;
516 [label="gini = 0.0\nsamples = 7\nvalue = [12, 0]", fillcolor="#e58139"] ;
514 -> 516 ;
517 [label="Concavity <= -0.252\ngini = 0.467\nsamples = 30\nvalue = [16, 27]", fillcolor="#aed7f4"] ;
507 -> 517 ;
518 [label="Perimeter <= -0.05\ngini = 0.498\nsamples = 24\nvalue = [16, 18]", fillcolor="#e9f4fc"] ;
517 -> 518 ;
519 [label="Solidity <= 0.544\ngini = 0.388\nsamples = 13\nvalue = [5, 14]", fillcolor="#80c0ee"] ;
518 -> 519 ;
520 [label="L/T Ratio <= 0.019\ngini = 0.142\nsamples = 10\nvalue = [1, 12]", fillcolor="#49a5e7"] ;
519 -> 520 ;
521 [label="gini = 0.0\nsamples = 9\nvalue = [0, 12]", fillcolor="#399de5"] ;
520 -> 521 ;
522 [label="gini = 0.0\nsamples = 1\nvalue = [1, 0]", fillcolor="#e58139"] ;
520 -> 522 ;
523 [label="FLength <= -0.059\ngini = 0.444\nsamples = 3\nvalue = [4, 2]", fillcolor="#f2c09c"] ;
519 -> 523 ;
524 [label="gini = 0.0\nsamples = 1\nvalue = [0, 2]", fillcolor="#399de5"] ;
523 -> 524 ;
525 [label="gini = 0.0\nsamples = 2\nvalue = [4, 0]", fillcolor="#e58139"] ;
523 -> 525 ;
526 [label="CHull Surface Area <= -0.066\ngini = 0.391\nsamples = 11\nvalue = [11, 4]", fillcolor="#eeaf81"] ;
518 -> 526 ;
527 [label="Sphericity <= 0.158\ngini = 0.165\nsamples = 8\nvalue = [10, 1]", fillcolor="#e88e4d"] ;
526 -> 527 ;
528 [label="Fiber Length <= -0.047\ngini = 0.375\nsamples = 4\nvalue = [3, 1]", fillcolor="#eeab7b"] ;
527 -> 528 ;
529 [label="gini = 0.0\nsamples = 1\nvalue = [0, 1]", fillcolor="#399de5"] ;
528 -> 529 ;
530 [label="gini = 0.0\nsamples = 3\nvalue = [3, 0]", fillcolor="#e58139"] ;
528 -> 530 ;
531 [label="gini = 0.0\nsamples = 4\nvalue = [7, 0]", fillcolor="#e58139"] ;
527 -> 531 ;
532 [label="FLength <= -0.046\ngini = 0.375\nsamples = 3\nvalue = [1, 3]", fillcolor="#7bbeee"] ;
526 -> 532 ;
533 [label="gini = 0.0\nsamples = 1\nvalue = [1, 0]", fillcolor="#e58139"] ;
532 -> 533 ;
534 [label="gini = 0.0\nsamples = 2\nvalue = [0, 3]", fillcolor="#399de5"] ;
532 -> 534 ;
535 [label="gini = 0.0\nsamples = 6\nvalue = [0, 9]", fillcolor="#399de5"] ;
517 -> 535 ;
536 [label="gini = 0.0\nsamples = 5\nvalue = [10, 0]", fillcolor="#e58139"] ;
498 -> 536 ;
537 [label="gini = 0.0\nsamples = 5\nvalue = [0, 10]", fillcolor="#399de5"] ;
497 -> 537 ;
538 [label="Da <= 0.007\ngini = 0.305\nsamples = 18\nvalue = [6, 26]", fillcolor="#67b4eb"] ;
474 -> 538 ;
539 [label="FThickness <= 0.045\ngini = 0.231\nsamples = 16\nvalue = [4, 26]", fillcolor="#57ace9"] ;
538 -> 539 ;
540 [label="Extent <= -0.029\ngini = 0.087\nsamples = 11\nvalue = [1, 21]", fillcolor="#42a2e6"] ;
539 -> 540 ;
541 [label="Solidity <= 0.226\ngini = 0.444\nsamples = 2\nvalue = [1, 2]", fillcolor="#9ccef2"] ;
540 -> 541 ;
542 [label="gini = 0.0\nsamples = 1\nvalue = [0, 2]", fillcolor="#399de5"] ;
541 -> 542 ;
543 [label="gini = 0.0\nsamples = 1\nvalue = [1, 0]", fillcolor="#e58139"] ;
541 -> 543 ;
544 [label="gini = 0.0\nsamples = 9\nvalue = [0, 19]", fillcolor="#399de5"] ;
540 -> 544 ;
545 [label="ELength <= -0.01\ngini = 0.469\nsamples = 5\nvalue = [3, 5]", fillcolor="#b0d8f5"] ;
539 -> 545 ;
546 [label="gini = 0.0\nsamples = 2\nvalue = [3, 0]", fillcolor="#e58139"] ;
545 -> 546 ;
547 [label="gini = 0.0\nsamples = 3\nvalue = [0, 5]", fillcolor="#399de5"] ;
545 -> 547 ;
548 [label="gini = 0.0\nsamples = 2\nvalue = [2, 0]", fillcolor="#e58139"] ;
538 -> 548 ;
549 [label="Transparency <= -0.078\ngini = 0.41\nsamples = 219\nvalue = [245, 99]", fillcolor="#f0b489"] ;
473 -> 549 ;
550 [label="Dp <= 0.128\ngini = 0.482\nsamples = 96\nvalue = [58, 85]", fillcolor="#c0e0f7"] ;
549 -> 550 ;
551 [label="Sieve <= 0.023\ngini = 0.354\nsamples = 74\nvalue = [25, 84]", fillcolor="#74baed"] ;
550 -> 551 ;
552 [label="Fiber Length <= 0.057\ngini = 0.144\nsamples = 48\nvalue = [5, 59]", fillcolor="#4aa5e7"] ;
551 -> 552 ;
553 [label="FWidth <= -0.077\ngini = 0.039\nsamples = 38\nvalue = [1, 49]", fillcolor="#3d9fe6"] ;
552 -> 553 ;
554 [label="CHull  Area <= -0.066\ngini = 0.18\nsamples = 8\nvalue = [1, 9]", fillcolor="#4fa8e8"] ;
553 -> 554 ;
555 [label="gini = 0.0\nsamples = 5\nvalue = [0, 7]", fillcolor="#399de5"] ;
554 -> 555 ;
556 [label="CHull  Area <= -0.066\ngini = 0.444\nsamples = 3\nvalue = [1, 2]", fillcolor="#9ccef2"] ;
554 -> 556 ;
557 [label="gini = 0.0\nsamples = 1\nvalue = [1, 0]", fillcolor="#e58139"] ;
556 -> 557 ;
558 [label="gini = 0.0\nsamples = 2\nvalue = [0, 2]", fillcolor="#399de5"] ;
556 -> 558 ;
559 [label="gini = 0.0\nsamples = 30\nvalue = [0, 40]", fillcolor="#399de5"] ;
553 -> 559 ;
560 [label="Concavity <= -0.213\ngini = 0.408\nsamples = 10\nvalue = [4, 10]", fillcolor="#88c4ef"] ;
552 -> 560 ;
561 [label="CHull  Area <= -0.062\ngini = 0.48\nsamples = 4\nvalue = [3, 2]", fillcolor="#f6d5bd"] ;
560 -> 561 ;
562 [label="gini = 0.0\nsamples = 3\nvalue = [3, 0]", fillcolor="#e58139"] ;
561 -> 562 ;
563 [label="gini = 0.0\nsamples = 1\nvalue = [0, 2]", fillcolor="#399de5"] ;
561 -> 563 ;
564 [label="Transparency <= -0.257\ngini = 0.198\nsamples = 6\nvalue = [1, 8]", fillcolor="#52a9e8"] ;
560 -> 564 ;
565 [label="gini = 0.0\nsamples = 5\nvalue = [0, 8]", fillcolor="#399de5"] ;
564 -> 565 ;
566 [label="gini = 0.0\nsamples = 1\nvalue = [1, 0]", fillcolor="#e58139"] ;
564 -> 566 ;
567 [label="Transparency <= -0.377\ngini = 0.494\nsamples = 26\nvalue = [20, 25]", fillcolor="#d7ebfa"] ;
551 -> 567 ;
568 [label="Ellipticity <= 0.635\ngini = 0.191\nsamples = 17\nvalue = [3, 25]", fillcolor="#51a9e8"] ;
567 -> 568 ;
569 [label="FThickness <= 0.176\ngini = 0.137\nsamples = 16\nvalue = [2, 25]", fillcolor="#49a5e7"] ;
568 -> 569 ;
570 [label="gini = 0.0\nsamples = 11\nvalue = [0, 19]", fillcolor="#399de5"] ;
569 -> 570 ;
571 [label="L/T Ratio <= -0.262\ngini = 0.375\nsamples = 5\nvalue = [2, 6]", fillcolor="#7bbeee"] ;
569 -> 571 ;
572 [label="gini = 0.0\nsamples = 4\nvalue = [0, 6]", fillcolor="#399de5"] ;
571 -> 572 ;
573 [label="gini = 0.0\nsamples = 1\nvalue = [2, 0]", fillcolor="#e58139"] ;
571 -> 573 ;
574 [label="gini = 0.0\nsamples = 1\nvalue = [1, 0]", fillcolor="#e58139"] ;
568 -> 574 ;
575 [label="gini = 0.0\nsamples = 9\nvalue = [17, 0]", fillcolor="#e58139"] ;
567 -> 575 ;
576 [label="Ellipse Ratio <= -0.646\ngini = 0.057\nsamples = 22\nvalue = [33, 1]", fillcolor="#e6853f"] ;
550 -> 576 ;
577 [label="gini = 0.0\nsamples = 14\nvalue = [23, 0]", fillcolor="#e58139"] ;
576 -> 577 ;
578 [label="Sieve <= 0.218\ngini = 0.165\nsamples = 8\nvalue = [10, 1]", fillcolor="#e88e4d"] ;
576 -> 578 ;
579 [label="gini = 0.0\nsamples = 1\nvalue = [0, 1]", fillcolor="#399de5"] ;
578 -> 579 ;
580 [label="gini = 0.0\nsamples = 7\nvalue = [10, 0]", fillcolor="#e58139"] ;
578 -> 580 ;
581 [label="ELength <= 0.219\ngini = 0.13\nsamples = 123\nvalue = [187, 14]", fillcolor="#e78a48"] ;
549 -> 581 ;
582 [label="Dp <= -0.002\ngini = 0.063\nsamples = 112\nvalue = [178, 6]", fillcolor="#e68540"] ;
581 -> 582 ;
583 [label="CHull Perimeter <= 0.003\ngini = 0.142\nsamples = 43\nvalue = [72, 6]", fillcolor="#e78c49"] ;
582 -> 583 ;
584 [label="FLength <= -0.021\ngini = 0.121\nsamples = 42\nvalue = [72, 5]", fillcolor="#e78a47"] ;
583 -> 584 ;
585 [label="Compactness <= -0.055\ngini = 0.42\nsamples = 5\nvalue = [7, 3]", fillcolor="#f0b78e"] ;
584 -> 585 ;
586 [label="CHull Surface Area <= -0.066\ngini = 0.375\nsamples = 2\nvalue = [1, 3]", fillcolor="#7bbeee"] ;
585 -> 586 ;
587 [label="gini = 0.0\nsamples = 1\nvalue = [1, 0]", fillcolor="#e58139"] ;
586 -> 587 ;
588 [label="gini = 0.0\nsamples = 1\nvalue = [0, 3]", fillcolor="#399de5"] ;
586 -> 588 ;
589 [label="gini = 0.0\nsamples = 3\nvalue = [6, 0]", fillcolor="#e58139"] ;
585 -> 589 ;
590 [label="L/W Ratio <= 1.422\ngini = 0.058\nsamples = 37\nvalue = [65, 2]", fillcolor="#e6853f"] ;
584 -> 590 ;
591 [label="gini = 0.0\nsamples = 33\nvalue = [60, 0]", fillcolor="#e58139"] ;
590 -> 591 ;
592 [label="Da <= -0.036\ngini = 0.408\nsamples = 4\nvalue = [5, 2]", fillcolor="#efb388"] ;
590 -> 592 ;
593 [label="gini = 0.0\nsamples = 3\nvalue = [5, 0]", fillcolor="#e58139"] ;
592 -> 593 ;
594 [label="gini = 0.0\nsamples = 1\nvalue = [0, 2]", fillcolor="#399de5"] ;
592 -> 594 ;
595 [label="gini = 0.0\nsamples = 1\nvalue = [0, 1]", fillcolor="#399de5"] ;
583 -> 595 ;
596 [label="gini = 0.0\nsamples = 69\nvalue = [106, 0]", fillcolor="#e58139"] ;
582 -> 596 ;
597 [label="FLength <= 0.27\ngini = 0.498\nsamples = 11\nvalue = [9, 8]", fillcolor="#fcf1e9"] ;
581 -> 597 ;
598 [label="EWidth <= 0.151\ngini = 0.198\nsamples = 5\nvalue = [1, 8]", fillcolor="#52a9e8"] ;
597 -> 598 ;
599 [label="gini = 0.0\nsamples = 4\nvalue = [0, 8]", fillcolor="#399de5"] ;
598 -> 599 ;
600 [label="gini = 0.0\nsamples = 1\nvalue = [1, 0]", fillcolor="#e58139"] ;
598 -> 600 ;
601 [label="gini = 0.0\nsamples = 6\nvalue = [8, 0]", fillcolor="#e58139"] ;
597 -> 601 ;
602 [label="CHull  Area <= -0.066\ngini = 0.423\nsamples = 367\nvalue = [176, 403]", fillcolor="#8fc8f0"] ;
472 -> 602 ;
603 [label="EWidth <= -0.083\ngini = 0.489\nsamples = 102\nvalue = [69, 93]", fillcolor="#cce6f8"] ;
602 -> 603 ;
604 [label="T/L Aspect Ratio <= -0.617\ngini = 0.397\nsamples = 65\nvalue = [29, 77]", fillcolor="#84c2ef"] ;
603 -> 604 ;
605 [label="Sieve <= -0.101\ngini = 0.45\nsamples = 52\nvalue = [29, 56]", fillcolor="#a0d0f2"] ;
604 -> 605 ;
606 [label="CHull Surface Area <= -0.067\ngini = 0.274\nsamples = 35\nvalue = [9, 46]", fillcolor="#60b0ea"] ;
605 -> 606 ;
607 [label="Volume <= -0.056\ngini = 0.484\nsamples = 12\nvalue = [7, 10]", fillcolor="#c4e2f7"] ;
606 -> 607 ;
608 [label="gini = 0.0\nsamples = 4\nvalue = [0, 8]", fillcolor="#399de5"] ;
607 -> 608 ;
609 [label="Transparency <= 0.181\ngini = 0.346\nsamples = 8\nvalue = [7, 2]", fillcolor="#eca572"] ;
607 -> 609 ;
610 [label="gini = 0.0\nsamples = 1\nvalue = [0, 2]", fillcolor="#399de5"] ;
609 -> 610 ;
611 [label="gini = 0.0\nsamples = 7\nvalue = [7, 0]", fillcolor="#e58139"] ;
609 -> 611 ;
612 [label="T/L Aspect Ratio <= -1.784\ngini = 0.1\nsamples = 23\nvalue = [2, 36]", fillcolor="#44a2e6"] ;
606 -> 612 ;
613 [label="gini = 0.0\nsamples = 1\nvalue = [1, 0]", fillcolor="#e58139"] ;
612 -> 613 ;
614 [label="Da <= -0.042\ngini = 0.053\nsamples = 22\nvalue = [1, 36]", fillcolor="#3ea0e6"] ;
612 -> 614 ;
615 [label="gini = 0.0\nsamples = 19\nvalue = [0, 31]", fillcolor="#399de5"] ;
614 -> 615 ;
616 [label="Extent <= -0.155\ngini = 0.278\nsamples = 3\nvalue = [1, 5]", fillcolor="#61b1ea"] ;
614 -> 616 ;
617 [label="gini = 0.0\nsamples = 1\nvalue = [1, 0]", fillcolor="#e58139"] ;
616 -> 617 ;
618 [label="gini = 0.0\nsamples = 2\nvalue = [0, 5]", fillcolor="#399de5"] ;
616 -> 618 ;
619 [label="Fiber Width <= -0.032\ngini = 0.444\nsamples = 17\nvalue = [20, 10]", fillcolor="#f2c09c"] ;
605 -> 619 ;
620 [label="W/L Ratio <= -0.984\ngini = 0.278\nsamples = 13\nvalue = [20, 4]", fillcolor="#ea9a61"] ;
619 -> 620 ;
621 [label="gini = 0.0\nsamples = 9\nvalue = [18, 0]", fillcolor="#e58139"] ;
620 -> 621 ;
622 [label="Ellipse Ratio <= -0.974\ngini = 0.444\nsamples = 4\nvalue = [2, 4]", fillcolor="#9ccef2"] ;
620 -> 622 ;
623 [label="gini = 0.0\nsamples = 3\nvalue = [0, 4]", fillcolor="#399de5"] ;
622 -> 623 ;
624 [label="gini = 0.0\nsamples = 1\nvalue = [2, 0]", fillcolor="#e58139"] ;
622 -> 624 ;
625 [label="gini = 0.0\nsamples = 4\nvalue = [0, 6]", fillcolor="#399de5"] ;
619 -> 625 ;
626 [label="gini = 0.0\nsamples = 13\nvalue = [0, 21]", fillcolor="#399de5"] ;
604 -> 626 ;
627 [label="Transparency <= 0.285\ngini = 0.408\nsamples = 37\nvalue = [40, 16]", fillcolor="#efb388"] ;
603 -> 627 ;
628 [label="Convexity <= 0.029\ngini = 0.208\nsamples = 13\nvalue = [2, 15]", fillcolor="#53aae8"] ;
627 -> 628 ;
629 [label="Angularity <= 0.515\ngini = 0.117\nsamples = 12\nvalue = [1, 15]", fillcolor="#46a4e7"] ;
628 -> 629 ;
630 [label="gini = 0.0\nsamples = 11\nvalue = [0, 15]", fillcolor="#399de5"] ;
629 -> 630 ;
631 [label="gini = 0.0\nsamples = 1\nvalue = [1, 0]", fillcolor="#e58139"] ;
629 -> 631 ;
632 [label="gini = 0.0\nsamples = 1\nvalue = [1, 0]", fillcolor="#e58139"] ;
628 -> 632 ;
633 [label="CHull Surface Area <= -0.067\ngini = 0.05\nsamples = 24\nvalue = [38, 1]", fillcolor="#e6843e"] ;
627 -> 633 ;
634 [label="L/W Ratio <= -0.255\ngini = 0.375\nsamples = 3\nvalue = [3, 1]", fillcolor="#eeab7b"] ;
633 -> 634 ;
635 [label="gini = 0.0\nsamples = 1\nvalue = [0, 1]", fillcolor="#399de5"] ;
634 -> 635 ;
636 [label="gini = 0.0\nsamples = 2\nvalue = [3, 0]", fillcolor="#e58139"] ;
634 -> 636 ;
637 [label="gini = 0.0\nsamples = 21\nvalue = [35, 0]", fillcolor="#e58139"] ;
633 -> 637 ;
638 [label="Fiber Length <= 8.23\ngini = 0.382\nsamples = 265\nvalue = [107, 310]", fillcolor="#7dbfee"] ;
602 -> 638 ;
639 [label="Transparency <= 0.139\ngini = 0.371\nsamples = 260\nvalue = [101, 310]", fillcolor="#7abded"] ;
638 -> 639 ;
640 [label="Sieve <= 0.178\ngini = 0.135\nsamples = 166\nvalue = [19, 242]", fillcolor="#49a5e7"] ;
639 -> 640 ;
641 [label="FThickness <= 0.016\ngini = 0.056\nsamples = 135\nvalue = [6, 204]", fillcolor="#3fa0e6"] ;
640 -> 641 ;
642 [label="gini = 0.0\nsamples = 62\nvalue = [0, 93]", fillcolor="#399de5"] ;
641 -> 642 ;
643 [label="W/T Ratio <= 0.693\ngini = 0.097\nsamples = 73\nvalue = [6, 111]", fillcolor="#44a2e6"] ;
641 -> 643 ;
644 [label="Ellipse Ratio <= -0.19\ngini = 0.052\nsamples = 71\nvalue = [3, 110]", fillcolor="#3ea0e6"] ;
643 -> 644 ;
645 [label="FWidth <= -0.051\ngini = 0.035\nsamples = 69\nvalue = [2, 109]", fillcolor="#3d9fe5"] ;
644 -> 645 ;
646 [label="Extent <= 0.012\ngini = 0.5\nsamples = 2\nvalue = [2, 2]", fillcolor="#ffffff"] ;
645 -> 646 ;
647 [label="gini = 0.0\nsamples = 1\nvalue = [2, 0]", fillcolor="#e58139"] ;
646 -> 647 ;
648 [label="gini = 0.0\nsamples = 1\nvalue = [0, 2]", fillcolor="#399de5"] ;
646 -> 648 ;
649 [label="gini = 0.0\nsamples = 67\nvalue = [0, 107]", fillcolor="#399de5"] ;
645 -> 649 ;
650 [label="Sphericity <= 0.018\ngini = 0.5\nsamples = 2\nvalue = [1, 1]", fillcolor="#ffffff"] ;
644 -> 650 ;
651 [label="gini = 0.0\nsamples = 1\nvalue = [1, 0]", fillcolor="#e58139"] ;
650 -> 651 ;
652 [label="gini = 0.0\nsamples = 1\nvalue = [0, 1]", fillcolor="#399de5"] ;
650 -> 652 ;
653 [label="FThickness <= 0.067\ngini = 0.375\nsamples = 2\nvalue = [3, 1]", fillcolor="#eeab7b"] ;
643 -> 653 ;
654 [label="gini = 0.0\nsamples = 1\nvalue = [3, 0]", fillcolor="#e58139"] ;
653 -> 654 ;
655 [label="gini = 0.0\nsamples = 1\nvalue = [0, 1]", fillcolor="#399de5"] ;
653 -> 655 ;
656 [label="Transparency <= -0.571\ngini = 0.38\nsamples = 31\nvalue = [13, 38]", fillcolor="#7dbfee"] ;
640 -> 656 ;
657 [label="Roundness <= -0.479\ngini = 0.157\nsamples = 21\nvalue = [3, 32]", fillcolor="#4ca6e7"] ;
656 -> 657 ;
658 [label="Da <= 0.908\ngini = 0.469\nsamples = 7\nvalue = [3, 5]", fillcolor="#b0d8f5"] ;
657 -> 658 ;
659 [label="gini = 0.0\nsamples = 3\nvalue = [0, 4]", fillcolor="#399de5"] ;
658 -> 659 ;
660 [label="Area <= 0.426\ngini = 0.375\nsamples = 4\nvalue = [3, 1]", fillcolor="#eeab7b"] ;
658 -> 660 ;
661 [label="gini = 0.0\nsamples = 3\nvalue = [3, 0]", fillcolor="#e58139"] ;
660 -> 661 ;
662 [label="gini = 0.0\nsamples = 1\nvalue = [0, 1]", fillcolor="#399de5"] ;
660 -> 662 ;
663 [label="gini = 0.0\nsamples = 14\nvalue = [0, 27]", fillcolor="#399de5"] ;
657 -> 663 ;
664 [label="Solidity <= -1.632\ngini = 0.469\nsamples = 10\nvalue = [10, 6]", fillcolor="#f5cdb0"] ;
656 -> 664 ;
665 [label="gini = 0.0\nsamples = 4\nvalue = [0, 6]", fillcolor="#399de5"] ;
664 -> 665 ;
666 [label="gini = 0.0\nsamples = 6\nvalue = [10, 0]", fillcolor="#e58139"] ;
664 -> 666 ;
667 [label="Extent <= -0.923\ngini = 0.496\nsamples = 94\nvalue = [82, 68]", fillcolor="#fbe9dd"] ;
639 -> 667 ;
668 [label="Concavity <= 2.447\ngini = 0.36\nsamples = 43\nvalue = [16, 52]", fillcolor="#76bbed"] ;
667 -> 668 ;
669 [label="Convexity <= -2.44\ngini = 0.463\nsamples = 12\nvalue = [14, 8]", fillcolor="#f4c9aa"] ;
668 -> 669 ;
670 [label="gini = 0.0\nsamples = 1\nvalue = [0, 5]", fillcolor="#399de5"] ;
669 -> 670 ;
671 [label="EThickness <= -0.133\ngini = 0.291\nsamples = 11\nvalue = [14, 3]", fillcolor="#eb9c63"] ;
669 -> 671 ;
672 [label="W/L Ratio <= -1.964\ngini = 0.5\nsamples = 4\nvalue = [3, 3]", fillcolor="#ffffff"] ;
671 -> 672 ;
673 [label="gini = 0.0\nsamples = 2\nvalue = [3, 0]", fillcolor="#e58139"] ;
672 -> 673 ;
674 [label="gini = 0.0\nsamples = 2\nvalue = [0, 3]", fillcolor="#399de5"] ;
672 -> 674 ;
675 [label="gini = 0.0\nsamples = 7\nvalue = [11, 0]", fillcolor="#e58139"] ;
671 -> 675 ;
676 [label="CHull  Area <= -0.066\ngini = 0.083\nsamples = 31\nvalue = [2, 44]", fillcolor="#42a1e6"] ;
668 -> 676 ;
677 [label="Angularity <= 0.194\ngini = 0.408\nsamples = 6\nvalue = [2, 5]", fillcolor="#88c4ef"] ;
676 -> 677 ;
678 [label="gini = 0.0\nsamples = 4\nvalue = [0, 5]", fillcolor="#399de5"] ;
677 -> 678 ;
679 [label="gini = 0.0\nsamples = 2\nvalue = [2, 0]", fillcolor="#e58139"] ;
677 -> 679 ;
680 [label="gini = 0.0\nsamples = 25\nvalue = [0, 39]", fillcolor="#399de5"] ;
676 -> 680 ;
681 [label="Dp <= 0.115\ngini = 0.314\nsamples = 51\nvalue = [66, 16]", fillcolor="#eba069"] ;
667 -> 681 ;
682 [label="Ellipse Ratio <= -1.415\ngini = 0.433\nsamples = 31\nvalue = [28, 13]", fillcolor="#f1bc95"] ;
681 -> 682 ;
683 [label="W/L Ratio <= -1.783\ngini = 0.32\nsamples = 5\nvalue = [1, 4]", fillcolor="#6ab6ec"] ;
682 -> 683 ;
684 [label="gini = 0.0\nsamples = 1\nvalue = [1, 0]", fillcolor="#e58139"] ;
683 -> 684 ;
685 [label="gini = 0.0\nsamples = 4\nvalue = [0, 4]", fillcolor="#399de5"] ;
683 -> 685 ;
686 [label="Curvature <= 2.782\ngini = 0.375\nsamples = 26\nvalue = [27, 9]", fillcolor="#eeab7b"] ;
682 -> 686 ;
687 [label="Volume <= -0.056\ngini = 0.225\nsamples = 23\nvalue = [27, 4]", fillcolor="#e99456"] ;
686 -> 687 ;
688 [label="gini = 0.0\nsamples = 1\nvalue = [0, 1]", fillcolor="#399de5"] ;
687 -> 688 ;
689 [label="Solidity <= -0.583\ngini = 0.18\nsamples = 22\nvalue = [27, 3]", fillcolor="#e88f4f"] ;
687 -> 689 ;
690 [label="Transparency <= 0.611\ngini = 0.444\nsamples = 7\nvalue = [6, 3]", fillcolor="#f2c09c"] ;
689 -> 690 ;
691 [label="gini = 0.0\nsamples = 3\nvalue = [0, 3]", fillcolor="#399de5"] ;
690 -> 691 ;
692 [label="gini = 0.0\nsamples = 4\nvalue = [6, 0]", fillcolor="#e58139"] ;
690 -> 692 ;
693 [label="gini = 0.0\nsamples = 15\nvalue = [21, 0]", fillcolor="#e58139"] ;
689 -> 693 ;
694 [label="gini = 0.0\nsamples = 3\nvalue = [0, 5]", fillcolor="#399de5"] ;
686 -> 694 ;
695 [label="EThickness <= -0.064\ngini = 0.136\nsamples = 20\nvalue = [38, 3]", fillcolor="#e78b49"] ;
681 -> 695 ;
696 [label="Convexity <= 0.029\ngini = 0.444\nsamples = 2\nvalue = [2, 1]", fillcolor="#f2c09c"] ;
695 -> 696 ;
697 [label="gini = 0.0\nsamples = 1\nvalue = [0, 1]", fillcolor="#399de5"] ;
696 -> 697 ;
698 [label="gini = 0.0\nsamples = 1\nvalue = [2, 0]", fillcolor="#e58139"] ;
696 -> 698 ;
699 [label="Extent <= 0.148\ngini = 0.1\nsamples = 18\nvalue = [36, 2]", fillcolor="#e68844"] ;
695 -> 699 ;
700 [label="Concavity <= 1.852\ngini = 0.054\nsamples = 16\nvalue = [35, 1]", fillcolor="#e6853f"] ;
699 -> 700 ;
701 [label="gini = 0.0\nsamples = 15\nvalue = [35, 0]", fillcolor="#e58139"] ;
700 -> 701 ;
702 [label="gini = 0.0\nsamples = 1\nvalue = [0, 1]", fillcolor="#399de5"] ;
700 -> 702 ;
703 [label="Fiber Length <= 0.5\ngini = 0.5\nsamples = 2\nvalue = [1, 1]", fillcolor="#ffffff"] ;
699 -> 703 ;
704 [label="gini = 0.0\nsamples = 1\nvalue = [0, 1]", fillcolor="#399de5"] ;
703 -> 704 ;
705 [label="gini = 0.0\nsamples = 1\nvalue = [1, 0]", fillcolor="#e58139"] ;
703 -> 705 ;
706 [label="gini = 0.0\nsamples = 5\nvalue = [6, 0]", fillcolor="#e58139"] ;
638 -> 706 ;
707 [label="Ellipticity <= 0.118\ngini = 0.059\nsamples = 243\nvalue = [379, 12]", fillcolor="#e6853f"] ;
51 -> 707 ;
708 [label="Area <= -0.065\ngini = 0.415\nsamples = 13\nvalue = [12, 5]", fillcolor="#f0b58b"] ;
707 -> 708 ;
709 [label="Dp <= -0.071\ngini = 0.49\nsamples = 7\nvalue = [3, 4]", fillcolor="#cee6f8"] ;
708 -> 709 ;
710 [label="L/W Ratio <= -0.888\ngini = 0.48\nsamples = 5\nvalue = [3, 2]", fillcolor="#f6d5bd"] ;
709 -> 710 ;
711 [label="gini = 0.0\nsamples = 3\nvalue = [3, 0]", fillcolor="#e58139"] ;
710 -> 711 ;
712 [label="gini = 0.0\nsamples = 2\nvalue = [0, 2]", fillcolor="#399de5"] ;
710 -> 712 ;
713 [label="gini = 0.0\nsamples = 2\nvalue = [0, 2]", fillcolor="#399de5"] ;
709 -> 713 ;
714 [label="Circularity <= 0.173\ngini = 0.18\nsamples = 6\nvalue = [9, 1]", fillcolor="#e88f4f"] ;
708 -> 714 ;
715 [label="gini = 0.0\nsamples = 1\nvalue = [0, 1]", fillcolor="#399de5"] ;
714 -> 715 ;
716 [label="gini = 0.0\nsamples = 5\nvalue = [9, 0]", fillcolor="#e58139"] ;
714 -> 716 ;
717 [label="T/L Aspect Ratio <= -0.703\ngini = 0.037\nsamples = 230\nvalue = [367, 7]", fillcolor="#e5833d"] ;
707 -> 717 ;
718 [label="Transparency <= -0.211\ngini = 0.032\nsamples = 225\nvalue = [359, 6]", fillcolor="#e5833c"] ;
717 -> 718 ;
719 [label="Fiber Width <= 0.046\ngini = 0.095\nsamples = 51\nvalue = [76, 4]", fillcolor="#e68843"] ;
718 -> 719 ;
720 [label="T/W Ratio <= -4.019\ngini = 0.375\nsamples = 4\nvalue = [1, 3]", fillcolor="#7bbeee"] ;
719 -> 720 ;
721 [label="gini = 0.0\nsamples = 1\nvalue = [1, 0]", fillcolor="#e58139"] ;
720 -> 721 ;
722 [label="gini = 0.0\nsamples = 3\nvalue = [0, 3]", fillcolor="#399de5"] ;
720 -> 722 ;
723 [label="Perimeter <= 0.06\ngini = 0.026\nsamples = 47\nvalue = [75, 1]", fillcolor="#e5833c"] ;
719 -> 723 ;
724 [label="gini = 0.0\nsamples = 1\nvalue = [0, 1]", fillcolor="#399de5"] ;
723 -> 724 ;
725 [label="gini = 0.0\nsamples = 46\nvalue = [75, 0]", fillcolor="#e58139"] ;
723 -> 725 ;
726 [label="ELength <= -0.065\ngini = 0.014\nsamples = 174\nvalue = [283, 2]", fillcolor="#e5823a"] ;
718 -> 726 ;
727 [label="ELength <= -0.066\ngini = 0.093\nsamples = 27\nvalue = [39, 2]", fillcolor="#e68743"] ;
726 -> 727 ;
728 [label="gini = 0.0\nsamples = 26\nvalue = [39, 0]", fillcolor="#e58139"] ;
727 -> 728 ;
729 [label="gini = 0.0\nsamples = 1\nvalue = [0, 2]", fillcolor="#399de5"] ;
727 -> 729 ;
730 [label="gini = 0.0\nsamples = 147\nvalue = [244, 0]", fillcolor="#e58139"] ;
726 -> 730 ;
731 [label="Roundness <= -0.56\ngini = 0.198\nsamples = 5\nvalue = [8, 1]", fillcolor="#e89152"] ;
717 -> 731 ;
732 [label="gini = 0.0\nsamples = 1\nvalue = [0, 1]", fillcolor="#399de5"] ;
731 -> 732 ;
733 [label="gini = 0.0\nsamples = 4\nvalue = [8, 0]", fillcolor="#e58139"] ;
731 -> 733 ;
734 [label="CHull Perimeter <= -0.15\ngini = 0.449\nsamples = 2570\nvalue = [1372, 2666]", fillcolor="#9fcff2"] ;
0 -> 734 [labeldistance=2.5, labelangle=-45, headlabel="False"] ;
735 [label="Roundness <= -0.255\ngini = 0.33\nsamples = 930\nvalue = [305, 1157]", fillcolor="#6db7ec"] ;
734 -> 735 ;
736 [label="Dp <= -0.18\ngini = 0.095\nsamples = 12\nvalue = [19, 1]", fillcolor="#e68843"] ;
735 -> 736 ;
737 [label="Sieve <= -0.193\ngini = 0.18\nsamples = 7\nvalue = [9, 1]", fillcolor="#e88f4f"] ;
736 -> 737 ;
738 [label="gini = 0.0\nsamples = 2\nvalue = [2, 0]", fillcolor="#e58139"] ;
737 -> 738 ;
739 [label="Fiber Width <= -0.143\ngini = 0.219\nsamples = 5\nvalue = [7, 1]", fillcolor="#e99355"] ;
737 -> 739 ;
740 [label="gini = 0.0\nsamples = 3\nvalue = [6, 0]", fillcolor="#e58139"] ;
739 -> 740 ;
741 [label="Fiber Width <= -0.125\ngini = 0.5\nsamples = 2\nvalue = [1, 1]", fillcolor="#ffffff"] ;
739 -> 741 ;
742 [label="gini = 0.0\nsamples = 1\nvalue = [0, 1]", fillcolor="#399de5"] ;
741 -> 742 ;
743 [label="gini = 0.0\nsamples = 1\nvalue = [1, 0]", fillcolor="#e58139"] ;
741 -> 743 ;
744 [label="gini = 0.0\nsamples = 5\nvalue = [10, 0]", fillcolor="#e58139"] ;
736 -> 744 ;
745 [label="Fiber Length <= -0.135\ngini = 0.318\nsamples = 918\nvalue = [286, 1156]", fillcolor="#6ab5eb"] ;
735 -> 745 ;
746 [label="FLength <= -0.168\ngini = 0.268\nsamples = 728\nvalue = [182, 961]", fillcolor="#5eb0ea"] ;
745 -> 746 ;
747 [label="FWidth <= -0.114\ngini = 0.198\nsamples = 458\nvalue = [80, 640]", fillcolor="#52a9e8"] ;
746 -> 747 ;
748 [label="Angularity <= 0.271\ngini = 0.238\nsamples = 339\nvalue = [73, 456]", fillcolor="#59ade9"] ;
747 -> 748 ;
749 [label="Concavity <= -0.11\ngini = 0.199\nsamples = 294\nvalue = [51, 405]", fillcolor="#52a9e8"] ;
748 -> 749 ;
750 [label="CHull Surface Area <= -0.069\ngini = 0.18\nsamples = 253\nvalue = [39, 350]", fillcolor="#4fa8e8"] ;
749 -> 750 ;
751 [label="Surface Area <= -0.07\ngini = 0.158\nsamples = 202\nvalue = [27, 285]", fillcolor="#4ca6e7"] ;
750 -> 751 ;
752 [label="Dp <= -0.198\ngini = 0.19\nsamples = 122\nvalue = [20, 168]", fillcolor="#51a9e8"] ;
751 -> 752 ;
753 [label="Surface Area <= -0.07\ngini = 0.141\nsamples = 68\nvalue = [8, 97]", fillcolor="#49a5e7"] ;
752 -> 753 ;
754 [label="Fiber Length <= -0.166\ngini = 0.142\nsamples = 67\nvalue = [8, 96]", fillcolor="#49a5e7"] ;
753 -> 754 ;
755 [label="Fiber Length <= -0.171\ngini = 0.193\nsamples = 47\nvalue = [8, 66]", fillcolor="#51a9e8"] ;
754 -> 755 ;
756 [label="Fiber Length <= -0.193\ngini = 0.153\nsamples = 46\nvalue = [6, 66]", fillcolor="#4ba6e7"] ;
755 -> 756 ;
757 [label="gini = 0.157\nsamples = 45\nvalue = [6, 64]", fillcolor="#4ca6e7"] ;
756 -> 757 ;
758 [label="gini = 0.0\nsamples = 1\nvalue = [0, 2]", fillcolor="#399de5"] ;
756 -> 758 ;
759 [label="gini = 0.0\nsamples = 1\nvalue = [2, 0]", fillcolor="#e58139"] ;
755 -> 759 ;
760 [label="gini = 0.0\nsamples = 20\nvalue = [0, 30]", fillcolor="#399de5"] ;
754 -> 760 ;
761 [label="gini = 0.0\nsamples = 1\nvalue = [0, 1]", fillcolor="#399de5"] ;
753 -> 761 ;
762 [label="Fiber Length <= -0.142\ngini = 0.247\nsamples = 54\nvalue = [12, 71]", fillcolor="#5aaee9"] ;
752 -> 762 ;
763 [label="Fiber Length <= -0.161\ngini = 0.224\nsamples = 52\nvalue = [10, 68]", fillcolor="#56abe9"] ;
762 -> 763 ;
764 [label="Fiber Width <= -0.148\ngini = 0.26\nsamples = 44\nvalue = [10, 55]", fillcolor="#5dafea"] ;
763 -> 764 ;
765 [label="Fiber Length <= -0.187\ngini = 0.242\nsamples = 43\nvalue = [9, 55]", fillcolor="#59ade9"] ;
764 -> 765 ;
766 [label="gini = 0.248\nsamples = 42\nvalue = [9, 53]", fillcolor="#5baee9"] ;
765 -> 766 ;
767 [label="gini = 0.0\nsamples = 1\nvalue = [0, 2]", fillcolor="#399de5"] ;
765 -> 767 ;
768 [label="gini = 0.0\nsamples = 1\nvalue = [1, 0]", fillcolor="#e58139"] ;
764 -> 768 ;
769 [label="gini = 0.0\nsamples = 8\nvalue = [0, 13]", fillcolor="#399de5"] ;
763 -> 769 ;
770 [label="Fiber Width <= -0.119\ngini = 0.48\nsamples = 2\nvalue = [2, 3]", fillcolor="#bddef6"] ;
762 -> 770 ;
771 [label="gini = 0.0\nsamples = 1\nvalue = [2, 0]", fillcolor="#e58139"] ;
770 -> 771 ;
772 [label="gini = 0.0\nsamples = 1\nvalue = [0, 3]", fillcolor="#399de5"] ;
770 -> 772 ;
773 [label="Roundness <= 0.345\ngini = 0.107\nsamples = 80\nvalue = [7, 117]", fillcolor="#45a3e7"] ;
751 -> 773 ;
774 [label="gini = 0.0\nsamples = 1\nvalue = [1, 0]", fillcolor="#e58139"] ;
773 -> 774 ;
775 [label="Roundness <= 1.648\ngini = 0.093\nsamples = 79\nvalue = [6, 117]", fillcolor="#43a2e6"] ;
773 -> 775 ;
776 [label="W/L Ratio <= 0.914\ngini = 0.1\nsamples = 61\nvalue = [5, 90]", fillcolor="#44a2e6"] ;
775 -> 776 ;
777 [label="Fiber Length <= -0.151\ngini = 0.084\nsamples = 41\nvalue = [3, 65]", fillcolor="#42a2e6"] ;
776 -> 777 ;
778 [label="EWidth <= -0.154\ngini = 0.059\nsamples = 39\nvalue = [2, 64]", fillcolor="#3fa0e6"] ;
777 -> 778 ;
779 [label="Fiber Width <= -0.196\ngini = 0.083\nsamples = 28\nvalue = [2, 44]", fillcolor="#42a1e6"] ;
778 -> 779 ;
780 [label="gini = 0.105\nsamples = 22\nvalue = [2, 34]", fillcolor="#45a3e7"] ;
779 -> 780 ;
781 [label="gini = 0.0\nsamples = 6\nvalue = [0, 10]", fillcolor="#399de5"] ;
779 -> 781 ;
782 [label="gini = 0.0\nsamples = 11\nvalue = [0, 20]", fillcolor="#399de5"] ;
778 -> 782 ;
783 [label="FThickness <= -0.234\ngini = 0.5\nsamples = 2\nvalue = [1, 1]", fillcolor="#ffffff"] ;
777 -> 783 ;
784 [label="gini = 0.0\nsamples = 1\nvalue = [0, 1]", fillcolor="#399de5"] ;
783 -> 784 ;
785 [label="gini = 0.0\nsamples = 1\nvalue = [1, 0]", fillcolor="#e58139"] ;
783 -> 785 ;
786 [label="Fiber Width <= -0.209\ngini = 0.137\nsamples = 20\nvalue = [2, 25]", fillcolor="#49a5e7"] ;
776 -> 786 ;
787 [label="gini = 0.159\nsamples = 16\nvalue = [2, 21]", fillcolor="#4ca6e7"] ;
786 -> 787 ;
788 [label="gini = 0.0\nsamples = 4\nvalue = [0, 4]", fillcolor="#399de5"] ;
786 -> 788 ;
789 [label="Fiber Length <= -0.189\ngini = 0.069\nsamples = 18\nvalue = [1, 27]", fillcolor="#40a1e6"] ;
775 -> 789 ;
790 [label="gini = 0.087\nsamples = 15\nvalue = [1, 21]", fillcolor="#42a2e6"] ;
789 -> 790 ;
791 [label="gini = 0.0\nsamples = 3\nvalue = [0, 6]", fillcolor="#399de5"] ;
789 -> 791 ;
792 [label="Ellipticity <= -0.796\ngini = 0.263\nsamples = 51\nvalue = [12, 65]", fillcolor="#5eafea"] ;
750 -> 792 ;
793 [label="FLength <= -0.177\ngini = 0.375\nsamples = 31\nvalue = [11, 33]", fillcolor="#7bbeee"] ;
792 -> 793 ;
794 [label="Roundness <= 1.136\ngini = 0.301\nsamples = 26\nvalue = [7, 31]", fillcolor="#66b3eb"] ;
793 -> 794 ;
795 [label="Fiber Length <= -0.184\ngini = 0.327\nsamples = 23\nvalue = [7, 27]", fillcolor="#6cb6ec"] ;
794 -> 795 ;
796 [label="Sphericity <= 0.809\ngini = 0.35\nsamples = 20\nvalue = [7, 24]", fillcolor="#73baed"] ;
795 -> 796 ;
797 [label="gini = 0.32\nsamples = 15\nvalue = [5, 20]", fillcolor="#6ab6ec"] ;
796 -> 797 ;
798 [label="gini = 0.444\nsamples = 5\nvalue = [2, 4]", fillcolor="#9ccef2"] ;
796 -> 798 ;
799 [label="gini = 0.0\nsamples = 3\nvalue = [0, 3]", fillcolor="#399de5"] ;
795 -> 799 ;
800 [label="gini = 0.0\nsamples = 3\nvalue = [0, 4]", fillcolor="#399de5"] ;
794 -> 800 ;
801 [label="Sphericity <= 1.172\ngini = 0.444\nsamples = 5\nvalue = [4, 2]", fillcolor="#f2c09c"] ;
793 -> 801 ;
802 [label="L/W Ratio <= -0.782\ngini = 0.32\nsamples = 4\nvalue = [4, 1]", fillcolor="#eca06a"] ;
801 -> 802 ;
803 [label="gini = 0.0\nsamples = 2\nvalue = [2, 0]", fillcolor="#e58139"] ;
802 -> 803 ;
804 [label="Fiber Length <= -0.174\ngini = 0.444\nsamples = 2\nvalue = [2, 1]", fillcolor="#f2c09c"] ;
802 -> 804 ;
805 [label="gini = 0.0\nsamples = 1\nvalue = [2, 0]", fillcolor="#e58139"] ;
804 -> 805 ;
806 [label="gini = 0.0\nsamples = 1\nvalue = [0, 1]", fillcolor="#399de5"] ;
804 -> 806 ;
807 [label="gini = 0.0\nsamples = 1\nvalue = [0, 1]", fillcolor="#399de5"] ;
801 -> 807 ;
808 [label="Ellipse Ratio <= 1.124\ngini = 0.059\nsamples = 20\nvalue = [1, 32]", fillcolor="#3fa0e6"] ;
792 -> 808 ;
809 [label="gini = 0.0\nsamples = 9\nvalue = [0, 15]", fillcolor="#399de5"] ;
808 -> 809 ;
810 [label="Transparency <= -0.859\ngini = 0.105\nsamples = 11\nvalue = [1, 17]", fillcolor="#45a3e7"] ;
808 -> 810 ;
811 [label="Fiber Length <= -0.176\ngini = 0.117\nsamples = 10\nvalue = [1, 15]", fillcolor="#46a4e7"] ;
810 -> 811 ;
812 [label="gini = 0.133\nsamples = 8\nvalue = [1, 13]", fillcolor="#48a5e7"] ;
811 -> 812 ;
813 [label="gini = 0.0\nsamples = 2\nvalue = [0, 2]", fillcolor="#399de5"] ;
811 -> 813 ;
814 [label="gini = 0.0\nsamples = 1\nvalue = [0, 2]", fillcolor="#399de5"] ;
810 -> 814 ;
815 [label="Fiber Length <= -0.153\ngini = 0.294\nsamples = 41\nvalue = [12, 55]", fillcolor="#64b2eb"] ;
749 -> 815 ;
816 [label="Compactness <= 0.137\ngini = 0.194\nsamples = 34\nvalue = [6, 49]", fillcolor="#51a9e8"] ;
815 -> 816 ;
817 [label="Fiber Width <= -0.197\ngini = 0.355\nsamples = 15\nvalue = [6, 20]", fillcolor="#74baed"] ;
816 -> 817 ;
818 [label="gini = 0.397\nsamples = 12\nvalue = [6, 16]", fillcolor="#83c2ef"] ;
817 -> 818 ;
819 [label="gini = 0.0\nsamples = 3\nvalue = [0, 4]", fillcolor="#399de5"] ;
817 -> 819 ;
820 [label="gini = 0.0\nsamples = 19\nvalue = [0, 29]", fillcolor="#399de5"] ;
816 -> 820 ;
821 [label="Circularity <= -0.144\ngini = 0.5\nsamples = 7\nvalue = [6, 6]", fillcolor="#ffffff"] ;
815 -> 821 ;
822 [label="gini = 0.0\nsamples = 2\nvalue = [4, 0]", fillcolor="#e58139"] ;
821 -> 822 ;
823 [label="CHull  Area <= -0.069\ngini = 0.375\nsamples = 5\nvalue = [2, 6]", fillcolor="#7bbeee"] ;
821 -> 823 ;
824 [label="gini = 0.0\nsamples = 3\nvalue = [0, 4]", fillcolor="#399de5"] ;
823 -> 824 ;
825 [label="Fiber Width <= -0.102\ngini = 0.5\nsamples = 2\nvalue = [2, 2]", fillcolor="#ffffff"] ;
823 -> 825 ;
826 [label="gini = 0.0\nsamples = 1\nvalue = [2, 0]", fillcolor="#e58139"] ;
825 -> 826 ;
827 [label="gini = 0.0\nsamples = 1\nvalue = [0, 2]", fillcolor="#399de5"] ;
825 -> 827 ;
828 [label="Fiber Length <= -0.186\ngini = 0.421\nsamples = 45\nvalue = [22, 51]", fillcolor="#8ec7f0"] ;
748 -> 828 ;
829 [label="Transparency <= 0.648\ngini = 0.362\nsamples = 36\nvalue = [14, 45]", fillcolor="#77bbed"] ;
828 -> 829 ;
830 [label="Angularity <= 0.395\ngini = 0.127\nsamples = 28\nvalue = [3, 41]", fillcolor="#47a4e7"] ;
829 -> 830 ;
831 [label="gini = 0.0\nsamples = 1\nvalue = [1, 0]", fillcolor="#e58139"] ;
830 -> 831 ;
832 [label="Ellipse Ratio <= 1.505\ngini = 0.089\nsamples = 27\nvalue = [2, 41]", fillcolor="#43a2e6"] ;
830 -> 832 ;
833 [label="gini = 0.0\nsamples = 21\nvalue = [0, 32]", fillcolor="#399de5"] ;
832 -> 833 ;
834 [label="Dp <= -0.173\ngini = 0.298\nsamples = 6\nvalue = [2, 9]", fillcolor="#65b3eb"] ;
832 -> 834 ;
835 [label="Transparency <= 0.272\ngini = 0.444\nsamples = 3\nvalue = [2, 1]", fillcolor="#f2c09c"] ;
834 -> 835 ;
836 [label="gini = 0.0\nsamples = 1\nvalue = [0, 1]", fillcolor="#399de5"] ;
835 -> 836 ;
837 [label="gini = 0.0\nsamples = 2\nvalue = [2, 0]", fillcolor="#e58139"] ;
835 -> 837 ;
838 [label="gini = 0.0\nsamples = 3\nvalue = [0, 8]", fillcolor="#399de5"] ;
834 -> 838 ;
839 [label="FThickness <= -0.214\ngini = 0.391\nsamples = 8\nvalue = [11, 4]", fillcolor="#eeaf81"] ;
829 -> 839 ;
840 [label="gini = 0.0\nsamples = 2\nvalue = [0, 4]", fillcolor="#399de5"] ;
839 -> 840 ;
841 [label="gini = 0.0\nsamples = 6\nvalue = [11, 0]", fillcolor="#e58139"] ;
839 -> 841 ;
842 [label="Da <= -0.175\ngini = 0.49\nsamples = 9\nvalue = [8, 6]", fillcolor="#f8e0ce"] ;
828 -> 842 ;
843 [label="FWidth <= -0.157\ngini = 0.198\nsamples = 7\nvalue = [8, 1]", fillcolor="#e89152"] ;
842 -> 843 ;
844 [label="ELength <= -0.189\ngini = 0.5\nsamples = 2\nvalue = [1, 1]", fillcolor="#ffffff"] ;
843 -> 844 ;
845 [label="gini = 0.0\nsamples = 1\nvalue = [1, 0]", fillcolor="#e58139"] ;
844 -> 845 ;
846 [label="gini = 0.0\nsamples = 1\nvalue = [0, 1]", fillcolor="#399de5"] ;
844 -> 846 ;
847 [label="gini = 0.0\nsamples = 5\nvalue = [7, 0]", fillcolor="#e58139"] ;
843 -> 847 ;
848 [label="gini = 0.0\nsamples = 2\nvalue = [0, 5]", fillcolor="#399de5"] ;
842 -> 848 ;
849 [label="Dp <= -0.153\ngini = 0.071\nsamples = 119\nvalue = [7, 184]", fillcolor="#41a1e6"] ;
747 -> 849 ;
850 [label="CHull  Area <= -0.069\ngini = 0.033\nsamples = 113\nvalue = [3, 178]", fillcolor="#3c9fe5"] ;
849 -> 850 ;
851 [label="Angularity <= 0.153\ngini = 0.122\nsamples = 26\nvalue = [3, 43]", fillcolor="#47a4e7"] ;
850 -> 851 ;
852 [label="gini = 0.0\nsamples = 1\nvalue = [1, 0]", fillcolor="#e58139"] ;
851 -> 852 ;
853 [label="Transparency <= 0.386\ngini = 0.085\nsamples = 25\nvalue = [2, 43]", fillcolor="#42a2e6"] ;
851 -> 853 ;
854 [label="gini = 0.0\nsamples = 22\nvalue = [0, 42]", fillcolor="#399de5"] ;
853 -> 854 ;
855 [label="T/L Aspect Ratio <= 1.535\ngini = 0.444\nsamples = 3\nvalue = [2, 1]", fillcolor="#f2c09c"] ;
853 -> 855 ;
856 [label="gini = 0.0\nsamples = 1\nvalue = [0, 1]", fillcolor="#399de5"] ;
855 -> 856 ;
857 [label="gini = 0.0\nsamples = 2\nvalue = [2, 0]", fillcolor="#e58139"] ;
855 -> 857 ;
858 [label="gini = 0.0\nsamples = 87\nvalue = [0, 135]", fillcolor="#399de5"] ;
850 -> 858 ;
859 [label="L/W Ratio <= -0.993\ngini = 0.48\nsamples = 6\nvalue = [4, 6]", fillcolor="#bddef6"] ;
849 -> 859 ;
860 [label="Ellipticity <= -0.986\ngini = 0.32\nsamples = 4\nvalue = [4, 1]", fillcolor="#eca06a"] ;
859 -> 860 ;
861 [label="gini = 0.0\nsamples = 1\nvalue = [0, 1]", fillcolor="#399de5"] ;
860 -> 861 ;
862 [label="gini = 0.0\nsamples = 3\nvalue = [4, 0]", fillcolor="#e58139"] ;
860 -> 862 ;
863 [label="gini = 0.0\nsamples = 2\nvalue = [0, 5]", fillcolor="#399de5"] ;
859 -> 863 ;
864 [label="Surface Area <= -0.069\ngini = 0.366\nsamples = 270\nvalue = [102, 321]", fillcolor="#78bced"] ;
746 -> 864 ;
865 [label="L/W Ratio <= -0.52\ngini = 0.5\nsamples = 21\nvalue = [17, 17]", fillcolor="#ffffff"] ;
864 -> 865 ;
866 [label="Concavity <= -0.401\ngini = 0.444\nsamples = 14\nvalue = [14, 7]", fillcolor="#f2c09c"] ;
865 -> 866 ;
867 [label="Ellipticity <= -0.59\ngini = 0.5\nsamples = 10\nvalue = [7, 7]", fillcolor="#ffffff"] ;
866 -> 867 ;
868 [label="CHull Perimeter <= -0.163\ngini = 0.486\nsamples = 9\nvalue = [7, 5]", fillcolor="#f8dbc6"] ;
867 -> 868 ;
869 [label="Fiber Width <= -0.135\ngini = 0.5\nsamples = 8\nvalue = [5, 5]", fillcolor="#ffffff"] ;
868 -> 869 ;
870 [label="Fiber Length <= -0.181\ngini = 0.494\nsamples = 7\nvalue = [5, 4]", fillcolor="#fae6d7"] ;
869 -> 870 ;
871 [label="gini = 0.5\nsamples = 6\nvalue = [4, 4]", fillcolor="#ffffff"] ;
870 -> 871 ;
872 [label="gini = 0.0\nsamples = 1\nvalue = [1, 0]", fillcolor="#e58139"] ;
870 -> 872 ;
873 [label="gini = 0.0\nsamples = 1\nvalue = [0, 1]", fillcolor="#399de5"] ;
869 -> 873 ;
874 [label="gini = 0.0\nsamples = 1\nvalue = [2, 0]", fillcolor="#e58139"] ;
868 -> 874 ;
875 [label="gini = 0.0\nsamples = 1\nvalue = [0, 2]", fillcolor="#399de5"] ;
867 -> 875 ;
876 [label="gini = 0.0\nsamples = 4\nvalue = [7, 0]", fillcolor="#e58139"] ;
866 -> 876 ;
877 [label="FWidth <= -0.141\ngini = 0.355\nsamples = 7\nvalue = [3, 10]", fillcolor="#74baed"] ;
865 -> 877 ;
878 [label="gini = 0.0\nsamples = 1\nvalue = [2, 0]", fillcolor="#e58139"] ;
877 -> 878 ;
879 [label="FThickness <= -0.16\ngini = 0.165\nsamples = 6\nvalue = [1, 10]", fillcolor="#4da7e8"] ;
877 -> 879 ;
880 [label="gini = 0.0\nsamples = 5\nvalue = [0, 10]", fillcolor="#399de5"] ;
879 -> 880 ;
881 [label="gini = 0.0\nsamples = 1\nvalue = [1, 0]", fillcolor="#e58139"] ;
879 -> 881 ;
882 [label="Ellipticity <= -0.598\ngini = 0.342\nsamples = 249\nvalue = [85, 304]", fillcolor="#70b8ec"] ;
864 -> 882 ;
883 [label="Solidity <= 0.427\ngini = 0.392\nsamples = 180\nvalue = [74, 202]", fillcolor="#82c1ef"] ;
882 -> 883 ;
884 [label="ELength <= -0.163\ngini = 0.473\nsamples = 19\nvalue = [16, 10]", fillcolor="#f5d0b5"] ;
883 -> 884 ;
885 [label="W/T Ratio <= -0.08\ngini = 0.469\nsamples = 11\nvalue = [6, 10]", fillcolor="#b0d8f5"] ;
884 -> 885 ;
886 [label="Compactness <= 1.014\ngini = 0.408\nsamples = 10\nvalue = [4, 10]", fillcolor="#88c4ef"] ;
885 -> 886 ;
887 [label="L/T Ratio <= -0.736\ngini = 0.49\nsamples = 5\nvalue = [4, 3]", fillcolor="#f8e0ce"] ;
886 -> 887 ;
888 [label="gini = 0.0\nsamples = 3\nvalue = [4, 0]", fillcolor="#e58139"] ;
887 -> 888 ;
889 [label="gini = 0.0\nsamples = 2\nvalue = [0, 3]", fillcolor="#399de5"] ;
887 -> 889 ;
890 [label="gini = 0.0\nsamples = 5\nvalue = [0, 7]", fillcolor="#399de5"] ;
886 -> 890 ;
891 [label="gini = 0.0\nsamples = 1\nvalue = [2, 0]", fillcolor="#e58139"] ;
885 -> 891 ;
892 [label="gini = 0.0\nsamples = 8\nvalue = [10, 0]", fillcolor="#e58139"] ;
884 -> 892 ;
893 [label="Extent <= -0.175\ngini = 0.356\nsamples = 161\nvalue = [58, 192]", fillcolor="#75bbed"] ;
883 -> 893 ;
894 [label="FThickness <= -0.128\ngini = 0.493\nsamples = 22\nvalue = [19, 15]", fillcolor="#fae4d5"] ;
893 -> 894 ;
895 [label="gini = 0.0\nsamples = 4\nvalue = [8, 0]", fillcolor="#e58139"] ;
894 -> 895 ;
896 [label="Perimeter <= -0.154\ngini = 0.488\nsamples = 18\nvalue = [11, 15]", fillcolor="#cae5f8"] ;
894 -> 896 ;
897 [label="gini = 0.0\nsamples = 5\nvalue = [0, 7]", fillcolor="#399de5"] ;
896 -> 897 ;
898 [label="Roundness <= 0.877\ngini = 0.488\nsamples = 13\nvalue = [11, 8]", fillcolor="#f8ddc9"] ;
896 -> 898 ;
899 [label="gini = 0.0\nsamples = 3\nvalue = [0, 4]", fillcolor="#399de5"] ;
898 -> 899 ;
900 [label="Solidity <= 0.44\ngini = 0.391\nsamples = 10\nvalue = [11, 4]", fillcolor="#eeaf81"] ;
898 -> 900 ;
901 [label="gini = 0.0\nsamples = 1\nvalue = [0, 3]", fillcolor="#399de5"] ;
900 -> 901 ;
902 [label="CHull Surface Area <= -0.069\ngini = 0.153\nsamples = 9\nvalue = [11, 1]", fillcolor="#e78c4b"] ;
900 -> 902 ;
903 [label="gini = 0.0\nsamples = 8\nvalue = [11, 0]", fillcolor="#e58139"] ;
902 -> 903 ;
904 [label="gini = 0.0\nsamples = 1\nvalue = [0, 1]", fillcolor="#399de5"] ;
902 -> 904 ;
905 [label="Ellipse Ratio <= 0.608\ngini = 0.296\nsamples = 139\nvalue = [39, 177]", fillcolor="#65b3eb"] ;
893 -> 905 ;
906 [label="gini = 0.0\nsamples = 1\nvalue = [2, 0]", fillcolor="#e58139"] ;
905 -> 906 ;
907 [label="Extent <= 0.111\ngini = 0.286\nsamples = 138\nvalue = [37, 177]", fillcolor="#62b1ea"] ;
905 -> 907 ;
908 [label="W/L Ratio <= 0.548\ngini = 0.381\nsamples = 51\nvalue = [20, 58]", fillcolor="#7dbfee"] ;
907 -> 908 ;
909 [label="L/W Ratio <= -0.568\ngini = 0.408\nsamples = 4\nvalue = [5, 2]", fillcolor="#efb388"] ;
908 -> 909 ;
910 [label="gini = 0.0\nsamples = 3\nvalue = [5, 0]", fillcolor="#e58139"] ;
909 -> 910 ;
911 [label="gini = 0.0\nsamples = 1\nvalue = [0, 2]", fillcolor="#399de5"] ;
909 -> 911 ;
912 [label="EWidth <= -0.111\ngini = 0.333\nsamples = 47\nvalue = [15, 56]", fillcolor="#6eb7ec"] ;
908 -> 912 ;
913 [label="Dp <= -0.154\ngini = 0.074\nsamples = 17\nvalue = [1, 25]", fillcolor="#41a1e6"] ;
912 -> 913 ;
914 [label="gini = 0.0\nsamples = 14\nvalue = [0, 22]", fillcolor="#399de5"] ;
913 -> 914 ;
915 [label="Ellipticity <= -0.672\ngini = 0.375\nsamples = 3\nvalue = [1, 3]", fillcolor="#7bbeee"] ;
913 -> 915 ;
916 [label="gini = 0.0\nsamples = 1\nvalue = [1, 0]", fillcolor="#e58139"] ;
915 -> 916 ;
917 [label="gini = 0.0\nsamples = 2\nvalue = [0, 3]", fillcolor="#399de5"] ;
915 -> 917 ;
918 [label="EThickness <= -0.12\ngini = 0.429\nsamples = 30\nvalue = [14, 31]", fillcolor="#92c9f1"] ;
912 -> 918 ;
919 [label="gini = 0.0\nsamples = 1\nvalue = [3, 0]", fillcolor="#e58139"] ;
918 -> 919 ;
920 [label="Extent <= 0.104\ngini = 0.387\nsamples = 29\nvalue = [11, 31]", fillcolor="#7fc0ee"] ;
918 -> 920 ;
921 [label="Transparency <= 0.378\ngini = 0.326\nsamples = 28\nvalue = [8, 31]", fillcolor="#6cb6ec"] ;
920 -> 921 ;
922 [label="Perimeter <= -0.156\ngini = 0.114\nsamples = 24\nvalue = [2, 31]", fillcolor="#46a3e7"] ;
921 -> 922 ;
923 [label="EThickness <= -0.114\ngini = 0.5\nsamples = 3\nvalue = [2, 2]", fillcolor="#ffffff"] ;
922 -> 923 ;
924 [label="gini = 0.0\nsamples = 2\nvalue = [0, 2]", fillcolor="#399de5"] ;
923 -> 924 ;
925 [label="gini = 0.0\nsamples = 1\nvalue = [2, 0]", fillcolor="#e58139"] ;
923 -> 925 ;
926 [label="gini = 0.0\nsamples = 21\nvalue = [0, 29]", fillcolor="#399de5"] ;
922 -> 926 ;
927 [label="gini = 0.0\nsamples = 4\nvalue = [6, 0]", fillcolor="#e58139"] ;
921 -> 927 ;
928 [label="gini = 0.0\nsamples = 1\nvalue = [3, 0]", fillcolor="#e58139"] ;
920 -> 928 ;
929 [label="FLength <= -0.167\ngini = 0.219\nsamples = 87\nvalue = [17, 119]", fillcolor="#55abe9"] ;
907 -> 929 ;
930 [label="Da <= -0.141\ngini = 0.5\nsamples = 3\nvalue = [2, 2]", fillcolor="#ffffff"] ;
929 -> 930 ;
931 [label="gini = 0.0\nsamples = 2\nvalue = [0, 2]", fillcolor="#399de5"] ;
930 -> 931 ;
932 [label="gini = 0.0\nsamples = 1\nvalue = [2, 0]", fillcolor="#e58139"] ;
930 -> 932 ;
933 [label="Sieve <= -0.129\ngini = 0.201\nsamples = 84\nvalue = [15, 117]", fillcolor="#52aae8"] ;
929 -> 933 ;
934 [label="Fiber Length <= -0.155\ngini = 0.312\nsamples = 41\nvalue = [12, 50]", fillcolor="#69b5eb"] ;
933 -> 934 ;
935 [label="FWidth <= -0.12\ngini = 0.174\nsamples = 35\nvalue = [5, 47]", fillcolor="#4ea7e8"] ;
934 -> 935 ;
936 [label="Solidity <= 0.569\ngini = 0.145\nsamples = 34\nvalue = [4, 47]", fillcolor="#4aa5e7"] ;
935 -> 936 ;
937 [label="Fiber Width <= -0.168\ngini = 0.298\nsamples = 7\nvalue = [2, 9]", fillcolor="#65b3eb"] ;
936 -> 937 ;
938 [label="gini = 0.32\nsamples = 6\nvalue = [2, 8]", fillcolor="#6ab6ec"] ;
937 -> 938 ;
939 [label="gini = 0.0\nsamples = 1\nvalue = [0, 1]", fillcolor="#399de5"] ;
937 -> 939 ;
940 [label="L/W Ratio <= -0.546\ngini = 0.095\nsamples = 27\nvalue = [2, 38]", fillcolor="#43a2e6"] ;
936 -> 940 ;
941 [label="gini = 0.0\nsamples = 3\nvalue = [0, 4]", fillcolor="#399de5"] ;
940 -> 941 ;
942 [label="Fiber Length <= -0.183\ngini = 0.105\nsamples = 24\nvalue = [2, 34]", fillcolor="#45a3e7"] ;
940 -> 942 ;
943 [label="gini = 0.114\nsamples = 23\nvalue = [2, 31]", fillcolor="#46a3e7"] ;
942 -> 943 ;
944 [label="gini = 0.0\nsamples = 1\nvalue = [0, 3]", fillcolor="#399de5"] ;
942 -> 944 ;
945 [label="gini = 0.0\nsamples = 1\nvalue = [1, 0]", fillcolor="#e58139"] ;
935 -> 945 ;
946 [label="Circularity <= 0.511\ngini = 0.42\nsamples = 6\nvalue = [7, 3]", fillcolor="#f0b78e"] ;
934 -> 946 ;
947 [label="Fiber Width <= -0.108\ngini = 0.245\nsamples = 3\nvalue = [6, 1]", fillcolor="#e9965a"] ;
946 -> 947 ;
948 [label="gini = 0.0\nsamples = 2\nvalue = [6, 0]", fillcolor="#e58139"] ;
947 -> 948 ;
949 [label="gini = 0.0\nsamples = 1\nvalue = [0, 1]", fillcolor="#399de5"] ;
947 -> 949 ;
950 [label="Fiber Length <= -0.138\ngini = 0.444\nsamples = 3\nvalue = [1, 2]", fillcolor="#9ccef2"] ;
946 -> 950 ;
951 [label="gini = 0.0\nsamples = 2\nvalue = [0, 2]", fillcolor="#399de5"] ;
950 -> 951 ;
952 [label="gini = 0.0\nsamples = 1\nvalue = [1, 0]", fillcolor="#e58139"] ;
950 -> 952 ;
953 [label="EWidth <= -0.074\ngini = 0.082\nsamples = 43\nvalue = [3, 67]", fillcolor="#42a1e6"] ;
933 -> 953 ;
954 [label="Angularity <= 1.634\ngini = 0.056\nsamples = 42\nvalue = [2, 67]", fillcolor="#3fa0e6"] ;
953 -> 954 ;
955 [label="gini = 0.0\nsamples = 38\nvalue = [0, 64]", fillcolor="#399de5"] ;
954 -> 955 ;
956 [label="Concavity <= -0.628\ngini = 0.48\nsamples = 4\nvalue = [2, 3]", fillcolor="#bddef6"] ;
954 -> 956 ;
957 [label="gini = 0.0\nsamples = 1\nvalue = [2, 0]", fillcolor="#e58139"] ;
956 -> 957 ;
958 [label="gini = 0.0\nsamples = 3\nvalue = [0, 3]", fillcolor="#399de5"] ;
956 -> 958 ;
959 [label="gini = 0.0\nsamples = 1\nvalue = [1, 0]", fillcolor="#e58139"] ;
953 -> 959 ;
960 [label="Compactness <= 0.376\ngini = 0.176\nsamples = 69\nvalue = [11, 102]", fillcolor="#4ea8e8"] ;
882 -> 960 ;
961 [label="Sphericity <= 0.521\ngini = 0.496\nsamples = 8\nvalue = [5, 6]", fillcolor="#deeffb"] ;
960 -> 961 ;
962 [label="gini = 0.0\nsamples = 2\nvalue = [0, 3]", fillcolor="#399de5"] ;
961 -> 962 ;
963 [label="Transparency <= 0.585\ngini = 0.469\nsamples = 6\nvalue = [5, 3]", fillcolor="#f5cdb0"] ;
961 -> 963 ;
964 [label="FWidth <= -0.129\ngini = 0.375\nsamples = 3\nvalue = [1, 3]", fillcolor="#7bbeee"] ;
963 -> 964 ;
965 [label="gini = 0.0\nsamples = 1\nvalue = [1, 0]", fillcolor="#e58139"] ;
964 -> 965 ;
966 [label="gini = 0.0\nsamples = 2\nvalue = [0, 3]", fillcolor="#399de5"] ;
964 -> 966 ;
967 [label="gini = 0.0\nsamples = 3\nvalue = [4, 0]", fillcolor="#e58139"] ;
963 -> 967 ;
968 [label="EWidth <= -0.122\ngini = 0.111\nsamples = 61\nvalue = [6, 96]", fillcolor="#45a3e7"] ;
960 -> 968 ;
969 [label="Transparency <= 0.57\ngini = 0.214\nsamples = 24\nvalue = [5, 36]", fillcolor="#54abe9"] ;
968 -> 969 ;
970 [label="Circularity <= 0.519\ngini = 0.142\nsamples = 22\nvalue = [3, 36]", fillcolor="#49a5e7"] ;
969 -> 970 ;
971 [label="gini = 0.0\nsamples = 1\nvalue = [2, 0]", fillcolor="#e58139"] ;
970 -> 971 ;
972 [label="Sieve <= -0.133\ngini = 0.053\nsamples = 21\nvalue = [1, 36]", fillcolor="#3ea0e6"] ;
970 -> 972 ;
